tree
version=v4
num_class=3
num_tree_per_iteration=3
label_index=0
max_feature_idx=39
objective=multiclass num_class:3
feature_names=Column_0 Column_1 Column_2 Column_3 Column_4 Column_5 Column_6 Column_7 Column_8 Column_9 Column_10 Column_11 Column_12 Column_13 Column_14 Column_15 Column_16 Column_17 Column_18 Column_19 Column_20 Column_21 Column_22 Column_23 Column_24 Column_25 Column_26 Column_27 Column_28 Column_29 Column_30 Column_31 Column_32 Column_33 Column_34 Column_35 Column_36 Column_37 Column_38 Column_39
feature_infos=[0:1] [0:1] [0:1] [0:1] [-1.6627243757247925:1.7034322023391724] [-0.75:0.75] [-2.7009332180023193:10.223465919494629] [-0.95462977886199951:2.2113995552062988] [-4.8344502449035645:9.4884395599365234] [-17.31854248046875:15.178411483764648] [0:1] [-3.9377341270446777:7.9594202041625977] [-7.805048942565918:3.7302958965301514] [-1.7024657726287842:1.564426064491272] [-5.998955249786377:8.8206567764282227] [-33.516590118408203:30.532604217529297] [-1.2371248006820679:5.2618517875671387] [-0.21417202055454254:3.2495684623718262] [-0.80233275890350342:0.59505492448806763] [-8.3616561889648438:7.0837364196777344] [-2:1] [0:1] [-0.80233275890350342:0.59505492448806763] [-38.915225982666016:17.453889846801758] [-1.2387782335281372:5.2706785202026367] [0:1] [-8.3633747100830078:7.0820174217224121] [-2.4516439437866211:7.0512642860412598] [-3.5935969352722168:6.3823232650756836] [-8.3287477493286133:7.0558576583862305] [-0.23739704489707947:3.6222426891326904] [-3.3175013065338135:0.35246071219444275] [-1.2888752222061157:4.5566420555114746] [-3.2401599884033203:3.0632824897766113] [-1:2] [-8.3311576843261719:7.0578994750976562] [-2.268435001373291:2.5738117694854736] [-75.274703979492188:115.33596038818359] [-4.1304302215576172:10.459460258483887] [-0.22951765358448029:3.3853044509887695]
tree_sizes=2469 2982 2764 3336 2917 2885 2907 3121 3105 2793 3126 3217 2803 3010 3227 3033 2599 3199 3008 3323 3007 2923 3221 2569 3329 2705 3004 2897 2911 3013 3441 3218 2677 2905 3241 2488 2483 2788 2703 2588 3028 3108 2797 3223 2591 2793 2915 2798 3014 3351 3016 2805 3034 2603 2491 3027 2473 2571 3236 1743 3233 2470 2063 2790 3034 2071 2897 2810 2174 2902 2389 2275 2596 2394 3206 2472 2381 1752 2610 2697 3119 2275 2908 2055 2902 2706 1974 2591 2699 2071 2896 2275 1964 2595 2487 1953 3012 2484 1863 3018 2275 2176 2800 2387 1750 2386 2475 1969 3028 2171 2582 2691 2713 2069 2497 2074 1634 2374 2484 1856 2799 2490 1634 2484 3225 2060 2369 2496 1620 3018 2813 2375 2274 1743 1738 1420 2699 1856 2490 2918 1963 2053 2599 2178 2696 2712 3002 1431 1843 2055 1854 2384 2066 1851 2055 1750 1851 2057 1731 2398 2809 999 1436 2040 1511 1961 2606 1752 1840 2286 1853 2074 2058 1531 2382 1948 1003 1847 1952 1624 1429 2165 2077 1206 2072 1412 2378 2705 2376 1639 2490 998 2279 2400 1972 896 1843 3121 2608 2396 3433 1634 2388 1733 1857 2918 1618 1851 2151 1749 1210 2494 1851 1330 2692 3009 2373 2277 889 1742 1958 2048 1113 2067 890 2596 1620 1837 1845 2277 2255 2380 3341 2381 2799 1617 1963 2819 1838 1751 1100 2604 1299 1757 2080 1634 1733 1963 1420 2378 2579 1646 1848 2279 1625 2804 3445 1213 1954 2389 2071 1200 2579 1412 888 2833 1630 2493 2484 2576 1971 1538 1949 1948 2812 1723 2073 1972 2933 2165 2620 3011 2787 3016 2268 2813 2489 1520 2598 2065 2496 2469 1626 2060 1307 2928 2163 1730 1533 2149 2484 1627 2171 3027 3025 2165 2580 2598 1520 1417 2297 2599 2814 2259 1957 1856 2691 1958 3446 1850 1863 1631 2793 1628 1945 1533 2390 1523 2580 3016 1862 2489 1620 1323 3034 1524 2291 2383 1522 2493 2922 1419 2594 1859 3017 2901 2048 2061 2601 3349 1208 1738 1525 2999 2385 2064 1522 2395 2369 1540 3243 1627 2709 1739 1863 1952 1845 2258 2701 2466 1514 2179 2260 2491 1416 2811 2817 1538 3461 3028 3232 2901 2489 2473 1306 2262 2178 2289 2037 1847 1856 2810 1958 2605 2911 1411 2792 1631 1094 2482 2702 2612 2615 1527 2601 2070 2383 2069 2893 2603 2593 3002 2603 2594 1307 1973 2609 1543 2595 1414 2497 1214 1325 2811 2912 1207 1535 1956 1950 2272 2706 1641 3236 2384 2494 1327 2492 2272 2486 1853 1409 2705 2256 2805 1318 1413 1756 1846 1972 2596 1536 2387 1951 2500 3029 3346 1952 2192 2074 1319 2493 3029 2682 2258 2707 2610 3012 2074 2506 2823 1522 1930 1098 995 2181 2475 1534 2809 2181 2278 2602 2704 2595 1934 3135 1543 1742 2262 2282 1847 2497 1529 1311 2252 3232 1639 2284 1430 2809 3018 995 2919 2928 2275 2798 3440 2699 1103 2714 3033 3009 2922 2079 2287 3018 1746 2485 2907 2277 2593 2607 1757 2926 1950 1750 2273 2060 1740 2166 3332 1423 2053 2902 2490 2584 2289 2389 2384 1970 2586 3252 2184 2929 2798 1209 1517 2268 2719 2929 2703 1422 1847 3456 1732 2493 2610 2508 1545 1641 2813 2375 1531 1623 1522 2681 2493 2692 1720 1847 2610 2614 1967 1329 2798 2721 2908 2169 2387 3133 2698 2725 2187 2463 2916 1209 2815 2390 2378 2177 2271 1633 2685 2482 2375 2284 2707 3242 1106 2171 2067 1630 2398 2280 1646 2600 2384 2171 2478 1633 2065 2492 2501 1966 2290 3137 1417 1736 2071 2273 1941 1316 1315 1626 2270 2037 2794 2595 1538 2161 3040 2381 2154 1519 2172 1954 1522 895 2707 1529 3236 2400 1981 1946 2266 892 2065 2188 1853 1324 2920 1432 3244 3129 2805 1862 2384 2282 2050 2154 2716 1833 3018 1206 1210 2711 1104 2831 2067 3135 2702 2699 2466 2795 1733 2815 1727 2906 3457 1737 1423 1632 2266 2272 3458 1742 3230 3448 1950 2922 2281 2713 2601 1627 2469 2362 2698 2370 2924 3239 2369 2274 1638 2832 2160 2612 2161 2695 1428 2925 1628 3114 1753 2159 1205 1527 1861 1637 1535 2706 3137 2716 2162 2603 2267 2591 2069 1753 3026 1428 1106 2509 3357 2173 2606 2502 1961 2388 2266 1649 2721 2936 2169 2603 2821 2283 2155 1325 2800 2068 3031 1323 2071 2608 1851 2514 1203 3120 2723 2366 1104 1967 1753 2695 2721 1215 1528 1217 2912 2168 3015 3166 1755 1426 2186 2375 1633 2085 2161 2501 1637 1211 3025 3443 2189 2501 3139 2372 1847 2468 1648 2295 2067 1746 2927 3243 1952 2504 2066 3234 3045 1961 2814 3023 2506 1548 1213 2270 1958 2810 1437 1320 2494 2373 2621 2497 1866 1102 2501 2060 1649 1855 3339 2058 1632 1330 2719 2586 2594 1311 3461 1450 1416 2612 2468 2481 1526 2604 2288 1742 2685 2057 3140 2585 2373 2388 1312 1531 2925 1632 1855 1211 2586 2397 2714 1860 3249 1634 1538 3475 2606 2613 2499 3141 2390 2285 3257 2932 3353 1961 2490 2388 2598 2385 2813 3041 1961 2928 2482 3028 2926 2606 2490 1007 1525 3465 1327 2173 1957 2363 2189 2711 3250 1751 3133 1836 2912 3035 2280 2174 1526

Tree=0
num_leaves=23
num_cat=0
split_feature=5 5 4 34 19 8 12 1 1 31 36 9 11 9 12 17 16 35 36 16 15 4
split_gain=12.8457 17.9369 12.0167 14.3623 11.5356 8.76467 13.4123 8.62371 12.1071 7.6517 6.96494 5.46445 5.23886 3.59903 6.2387 3.57143 3.32277 3.2374 6.58294 3.14386 1.71429 0.654545
threshold=0.24193826317787173 1.0000000180025095e-35 0.060897655785083778 -1.0000000180025095e-35 -1.5305016040802 -0.81574225425720204 -0.27239717543125147 1.0000000180025095e-35 0.96200117468833934 0.17591329663991931 -0.36497481167316431 -0.013140953145921229 2.9831863641738896 1.9454244375228884 1.3775461912155154 -0.063767015933990465 -0.85458576679229725 -0.68891993165016163 0.77608767151832592 1.3387503623962405 0.17701301723718646 -0.28155516088008875
decision_type=2 2 2 2 2 2 2 2 2 2 2 2 2 2 2 2 2 2 2 2 2 2
left_child=1 4 3 9 17 6 -5 10 -9 21 -6 -7 13 16 -15 -3 -4 18 -1 -19 -17 -2
right_child=2 15 12 5 7 11 -8 8 -10 -11 -12 -13 -14 14 -16 20 -18 19 -20 -21 -22 -23
leaf_value=-1.1370738271296483 -1.0286122886681097 -1.0736122886681099 -1.1486122886681098 -1.1019736332059249 -1.0862812075870287 -1.116233434042559 -1.0537593474916391 -1.0296467714267306 -1.0873219660874647 -1.1036122886681097 -1.1017714624226662 -1.0973135873694084 -1.0696649202470572 -1.1086122886681098 -1.0395213795772007 -1.0414694315252526 -1.1173049492185685 -1.143255145810967 -1.0436122886681098 -1.0986122886681098 -0.9986122886681098 -0.99861228866810969
leaf_weight=4.333333462476733 3.333333432674408 4.6666668057441703 9.0000002682208997 39.666667848825455 98.666669607162476 75.666668921709061 22.666667342185974 9.6666669547557813 155.00000461935997 3.333333432674408 274.33334150910378 77.000002294778824 6.3333335220813742 30.000000894069672 3.6666667759418479 4.6666668057441694 145.33333766460419 18.666667222976688 3.333333432674408 5.0000001490116111 4.6666668057441711 4.0000001192092878
leaf_count=13 10 14 27 119 296 227 68 29 465 10 823 231 19 90 11 14 436 56 10 15 14 12
internal_value=-1.09861 -1.09381 -1.10528 -1.09743 -1.09519 -1.10024 -1.08444 -1.09347 -1.08394 -1.0408 -1.09767 -1.10669 -1.11439 -1.1159 -1.10109 -1.0379 -1.11913 -1.12468 -1.09644 -1.13382 -1.02004 -1.01225
internal_weight=1003 583 420 225.667 569 215 62.3333 537.667 164.667 10.6667 373 152.667 194.333 188 33.6667 14 154.333 31.3333 7.66667 23.6667 9.33333 7.33333
internal_count=3009 1749 1260 677 1707 645 187 1613 494 32 1119 458 583 564 101 42 463 94 23 71 28 22
is_linear=0
shrinkage=1


Tree=1
num_leaves=28
num_cat=0
split_feature=5 14 24 30 28 3 36 24 23 13 7 33 30 14 27 9 35 26 26 13 24 12 24 37 23 26 6
split_gain=16.6857 17.3311 15.3411 9.95776 9.19229 8.30736 9.16618 7.04348 10.4366 5.73829 5.63155 5.46152 5.36061 5.28065 7.51931 6.54944 5.5024 5.10801 4.25177 5.71138 3.57176 3.52951 4.25416 3.04211 3.01596 1.42041 0.225
threshold=0.49881316721439367 -0.82458055019378651 0.38527050614357 1.1410776376724245 0.89754235744476329 0.30347724258899694 -0.54180997610092152 -0.2606642991304397 0.14598900824785235 0.36269624531269079 -0.87318763136863697 0.15985360741615298 -0.051130572333931916 -0.21782079339027402 -0.31448720395565027 -0.00048779492499306793 -1.1818760037422178 -0.78493446111679066 0.62203782796859752 -0.20917272567749021 -0.79152491688728321 -0.26044087111949915 -0.36280888319015497 -0.39736784994602198 6.7429447174072275 -0.69004476070404042 -0.043550293892621987
decision_type=2 2 2 2 2 2 2 2 2 2 2 2 2 2 2 2 2 2 2 2 2 2 2 2 2 2 2
left_child=2 11 13 5 7 6 -4 10 -9 -6 -3 21 -7 16 15 -15 23 -16 25 -20 -18 22 -2 -1 -11 -5 -23
right_child=1 4 3 18 9 12 -8 8 -10 24 -12 -13 -14 14 17 -17 20 -19 19 -21 -22 26 -24 -25 -26 -27 -28
leaf_value=-1.0436122886681098 -1.1423622886681097 -1.0386122886681097 -1.106676804797142 -1.1186122886681098 -1.0521837172395383 -1.1182931397319396 -1.0762545650908739 -1.081211407610841 -1.0494597462952284 -1.1166973950510886 -1.0934960095983424 -1.0686122886681098 -1.0819456220014432 -1.0557551458109669 -1.0736122886681099 -1.0979872886681097 -1.1412952154973781 -1.1078925916984128 -1.1249280781417941 -1.0486122886681097 -1.1146379296937508 -1.1486122886681098 -1.0975484588808757 -1.0972964991944256 -1.0736122886681099 -1.1486122886681098 -1.1336122886681097
leaf_weight=3.3333334326744106 8.0000002384185773 5.0000001490116111 31.000000923871994 6.6666668653488186 4.6666668057441703 31.333334267139435 123.00000366568565 75.666668921709061 39.333334505558014 31.333334267139435 71.666668802499771 5.0000001490116111 15.000000447034834 14.000000417232512 11.333333671092985 26.666667461395264 13.666667073965071 264.00000786781311 6.3333335220813751 4.0000001192092878 156.00000464916229 10.000000298023222 15.666667133569719 12.666667044162748 4.6666668057441703 9.6666669547557849 3.3333334326744071
leaf_count=10 24 15 93 20 14 94 369 227 118 94 215 15 45 42 34 80 41 792 19 12 468 30 47 38 14 29 10
internal_value=-1.09861 -1.0881 -1.10257 -1.09178 -1.08276 -1.08796 -1.08238 -1.07818 -1.07035 -1.10435 -1.08992 -1.11766 -1.10653 -1.10745 -1.10352 -1.08345 -1.11414 -1.10648 -1.12049 -1.09539 -1.11679 -1.12429 -1.1127 -1.08611 -1.11111 -1.13637 -1.14486
internal_weight=1003 274.333 728.667 227 232.333 200.333 154 191.667 115 40.6667 76.6667 42 46.3333 501.667 316 40.6667 185.667 275.333 26.6667 10.3333 169.667 37 23.6667 16 36 16.3333 13.3333
internal_count=3009 823 2186 681 697 601 462 575 345 122 230 126 139 1505 948 122 557 826 80 31 509 111 71 48 108 49 40
is_linear=0
shrinkage=1


Tree=2
num_leaves=26
num_cat=0
split_feature=6 9 16 13 6 6 37 33 6 20 13 16 29 30 26 23 13 31 32 13 12 15 37 37 1
split_gain=21.4176 12.3832 12.5988 10.0715 9.90386 10.3275 9.87486 9.07163 7.23649 6.30653 9.09768 8.86756 8.19566 6.74678 5.81818 5.03241 4.15829 4.44853 3.9375 3.89435 3.82273 3.80862 3.75 3.61265 1.47273
threshold=0.88278087973594677 -2.486899614334106 -0.85458576679229725 0.86499205231666576 0.40797959268093115 -0.31347405910491938 -0.10878964141011237 0.84624478220939647 0.37798509001731878 -1.5412685275077818 0.20216055959463122 -0.5530603528022765 0.65761780738830578 -0.23708973079919812 -0.41294278204441065 -0.6519087255001067 -1.0000000180025095e-35 0.13264168798923495 -0.80069750547409047 -0.80078071355819691 -1.677415072917938 -0.35273469984531397 0.001851871202234179 7.3625285625457773 0.33549760282039648
decision_type=2 2 2 2 2 2 2 2 2 2 2 2 2 2 2 2 2 2 2 2 2 2 2 2 2
left_child=1 4 8 6 5 15 -4 -5 19 14 13 22 -13 -11 16 -1 17 -2 -10 -3 -16 -7 -12 -15 -6
right_child=9 2 3 7 24 21 -8 -9 18 10 11 12 -14 23 20 -17 -18 -19 -20 -21 -22 -23 -24 -25 -26
leaf_value=-1.1147413209261743 -1.0048622886681098 -1.0447661348219559 -1.0991538049135972 -1.0914694315252527 -1.1486122886681098 -1.0298622886681097 -1.1113542241519807 -1.0250828769034039 -1.0079872886681098 -1.0414694315252526 -1.0086122886681099 -1.0724759250317462 -1.1117701834049518 -1.1082614114751272 -1.0611122886681097 -1.0521837172395383 -1.0886122886681098 -1.0736122886681099 -1.0736122886681099 -1.0969729444058147 -1.1336122886681097 -1.0886122886681098 -1.0586122886681097 -1.0736122886681099 -1.1036122886681097
leaf_weight=10.333333641290663 8.0000002384185773 4.333333462476733 277.0000082552433 56.000001668930054 4.0000001192092887 16.000000476837158 413.33334565162659 5.6666668355464926 5.3333334922790527 4.6666668057441703 5.0000001490116146 44.000001311302185 19.000000566244125 57.000001698732376 4.0000001192092896 4.6666668057441703 3.3333334326744088 3.3333334326744088 4.0000001192092878 20.333333939313889 3.3333334326744071 3.3333334326744106 15.000000447034834 8.6666669249534589 3.333333432674408
leaf_count=31 24 13 831 168 12 48 1240 17 16 14 15 132 57 171 12 14 10 10 12 61 10 10 45 26 10
internal_value=-1.09861 -1.10198 -1.10338 -1.10473 -1.07541 -1.06415 -1.10646 -1.08537 -1.07361 -1.08274 -1.08633 -1.07512 -1.08433 -1.09956 -1.0577 -1.09528 -1.03952 -1.02508 -1.03611 -1.0878 -1.09407 -1.03999 -1.04611 -1.10369 -1.12816
internal_weight=1003 827.667 786 752 41.6667 34.3333 690.333 61.6667 34 175.333 153.333 83 63 70.3333 22 15 14.6667 11.3333 9.33333 24.6667 7.33333 19.3333 20 65.6667 7.33333
internal_count=3009 2483 2358 2256 125 103 2071 185 102 526 460 249 189 211 66 45 44 34 28 74 22 58 60 197 22
is_linear=0
shrinkage=1


Tree=3
num_leaves=30
num_cat=0
split_feature=13 9 15 35 7 35 31 13 15 30 26 12 26 26 33 19 28 35 26 28 4 1 24 12 15 22 12 35 24
split_gain=11.617 9.92228 12.2222 9.94925 8.80315 8.51623 8.99097 8.95076 9.76386 7.92245 6.4446 7.52285 6.43942 7.43223 9.0442 6.06806 5.99422 5.64714 7.74697 4.57872 4.40815 3.98318 3.97971 3.89081 3.4164 3.14194 3.01332 1.80776 0.762686
threshold=0.21213039010763171 -0.22277258336544034 0.13385797291994098 -0.22164563089609143 -0.7837945520877837 0.7731662690639497 -0.56972032785415638 0.41607397794723516 -2.3180043697357173 2.02415943145752 1.3585098385810854 -0.89047423005104054 -0.41950507462024683 -0.012898305896669625 -0.39804153144359583 1.2279436588287356 1.0594592690467837 -0.97673773765563954 0.012964137364178898 -0.10413311421871184 0.28057506680488592 0.20888306200504306 0.8282228708267213 -0.28302493691444391 -0.010261079296469687 -0.78057765960693348 -0.3251394629478454 -0.2522465288639068 -1.0000000180025095e-35
decision_type=2 2 2 2 2 2 2 2 2 2 2 2 2 2 2 2 2 2 2 2 2 2 2 2 2 2 2 2 2
left_child=1 2 17 4 19 12 16 21 -9 -6 11 -5 24 14 -14 -15 28 22 -19 -3 25 -8 -1 -18 27 -4 -12 -2 -7
right_child=5 3 20 10 9 6 7 8 -10 -11 26 -13 13 15 -16 -17 23 18 -20 -21 -22 -23 -24 -25 -26 -27 -28 -29 -30
leaf_value=-0.029831269194901006 -0.019040503573280285 0.0069299695707157371 0.01254238004361532 -0.024797782790016213 0.020020580152455333 -0.022394780544062326 -0.034194081936382674 0.090817329171394373 0.020551147870784575 0.069141495515263746 0.0099433731943666115 0.0073334235878892611 -0.025457823306893609 -0.017144197142529242 0.017712382602377476 0.0093286961123399542 -0.030943656296929641 9.8995835024392049e-05 0.028936957971612467 -0.043153251392346353 0.024722148033731062 0.025215807235464002 0.016605443996995612 0.0089471566402278095 0.0054060562069357526 -0.033772725228465375 -0.044947223560176691 -0.041961995496065246 -0.04981900885697154
leaf_weight=19.947028577327732 12.967538833618162 11.375607371330263 3.9981078803539267 19.940787672996521 128.9823807477951 3.6498403549194345 9.6216473579406721 5.6768265664577475 38.292119443416595 8.766461640596388 3.3350222110748282 210.6864450275898 16.319436490535736 149.82822588086128 47.285350203514099 25.301996320486069 7.9627597928047171 107.53621011972427 29.726235598325729 7.6206901073455802 4.008628010749816 3.9918340742588034 6.0022709667682639 26.309696614742279 6.3243583440780631 43.530149161815643 9.9893275797367078 25.550965070724487 8.3017114102840388
leaf_count=60 39 34 12 60 386 11 29 17 115 26 10 631 49 451 142 76 24 322 89 23 12 12 18 79 19 131 30 77 25
internal_value=8.67906e-08 0.00426961 -0.00440248 0.00891731 0.0187464 -0.00678299 0.00547013 0.0186542 0.0296232 0.0231467 0.00260189 0.00455525 -0.0112684 -0.00800289 0.00663596 -0.0133195 -0.0109536 0.00230043 0.00634429 -0.0131618 -0.0256299 -0.0167735 -0.0190901 -0.000320955 -0.0286531 -0.0298767 -0.0312084 -0.0342453 -0.041444
internal_weight=1002.83 615.445 214.749 400.697 156.745 387.384 103.806 57.5824 43.9689 137.749 243.952 230.627 283.578 238.735 63.6048 175.13 46.224 163.212 137.262 18.9963 51.5369 13.6135 25.9493 34.2725 44.8429 47.5283 13.3243 38.5185 11.9516
internal_count=3009 1844 644 1200 469 1165 312 173 132 412 731 691 853 718 191 527 139 489 411 57 155 41 78 103 135 143 40 116 36
is_linear=0
shrinkage=0.05


Tree=4
num_leaves=26
num_cat=0
split_feature=15 5 24 31 3 23 14 4 36 16 13 32 8 16 4 13 36 6 36 24 27 12 27 26 24
split_gain=15.838 15.6007 13.8979 10.3916 8.93204 7.93829 7.62501 13.5585 6.48611 10.8061 7.98756 6.03078 5.35633 4.55434 4.51782 4.72554 4.71773 5.35967 4.51897 3.5205 2.71018 1.36057 1.3244 0.820775 9.13336e-05
threshold=-2.4397987127304073 0.49881316721439367 0.38527050614357 -0.17639999836683271 1.0000000180025095e-35 -1.7085554599761961 -0.085826773196458803 0.63759076595306408 -0.29193533957004542 -0.66664639115333546 1.0000000180025095e-35 -0.93228930234909047 -0.32033351063728327 0.10745396092534067 -0.69401380419731129 0.86499205231666576 0.20263914763927462 0.54588168859481823 -0.13510364294052121 0.30226930975914007 -1.3755489587783811 0.48500256240367895 -0.1384223327040672 -0.37852385640144343 -0.021614180877804753
decision_type=2 2 2 2 2 2 2 2 2 2 2 2 2 2 2 2 2 2 2 2 2 2 2 2 2
left_child=14 2 11 6 5 -4 19 -8 10 -10 -5 22 -13 -6 20 16 18 -18 -16 -3 -1 23 -2 -22 -17
right_child=1 3 4 8 13 -7 7 -9 9 -11 -12 12 -14 -15 15 24 17 -19 -20 -21 21 -23 -24 -25 -26
leaf_value=0.010057004505990105 -0.016972655965831869 -0.0034762548797187863 -0.011779161030258223 -0.0053913831201290122 0.036537084777828875 0.018864055066186193 0.02919555923896652 -0.017285165065484925 -0.01164300150050966 0.037842015918599953 0.033329815080885526 -0.015068164012105187 -0.0024711529547053967 -0.015646306526684632 -0.0066140685494233105 -0.049701602986441294 0.041001958453625996 -0.010175755978081858 -0.045002747625061283 -0.034971703084152213 -0.046941686765633171 -0.0085204830304170878 -0.049576953811187485 -0.02904348476258109 -0.050063719347714454
leaf_weight=3.3303606212139121 4.6149390041828147 19.334905177354813 24.931154906749725 36.807130396366119 4.6378051638603202 138.79572093486786 39.597470730543137 25.985336154699326 13.011167287826536 72.531296074390411 20.870434880256653 115.36755934357643 314.23826685547829 42.469038635492325 29.974526345729828 3.3128898739814758 9.336709678173067 11.316373378038405 10.300450325012205 16.396929085254669 19.14524507522583 3.643045872449874 9.580823212862013 9.6259079873561877 3.6706528663635245
leaf_count=10 14 58 75 110 14 414 118 78 39 216 62 348 945 128 90 10 28 34 31 49 58 11 29 29 11
internal_value=-3.77796e-07 0.00213308 -0.00189216 0.0129089 0.00867769 0.0141979 0.00065408 0.0107789 0.021578 0.0303153 0.00861975 -0.0069135 -0.00585399 -0.0105087 -0.0185072 -0.0109341 -0.0064688 0.0129603 -0.0164321 -0.0179292 -0.0328953 -0.0373084 -0.0389775 -0.0409535 -0.0498919
internal_weight=1002.83 899.17 654.635 244.535 210.834 163.727 101.315 65.5828 143.22 85.5425 57.6776 443.802 429.606 47.1068 103.656 67.9116 60.9281 20.6531 40.275 35.7318 35.7446 32.4142 14.1958 28.7712 6.98354
internal_count=3009 2697 1967 730 631 489 303 196 427 255 172 1336 1293 142 312 204 183 62 121 107 108 98 43 87 21
is_linear=0
shrinkage=0.05


Tree=5
num_leaves=26
num_cat=0
split_feature=7 19 26 16 33 22 36 37 15 36 31 29 14 22 20 33 4 8 16 32 37 36 29 8 27
split_gain=16.8595 12.3798 10.2204 8.7665 8.66631 7.95543 7.67856 9.89049 7.88555 6.0374 5.81125 5.74628 5.73452 6.67061 5.25451 6.85639 5.60988 7.63749 3.75935 3.18206 2.92919 2.90284 2.74136 2.54785 1.88566
threshold=0.68474370241165172 -0.72894614934921254 -1.1568154692649839 -0.85458576679229725 -0.75238016247749318 0.58044111728668224 0.85151487588882457 -0.27562731504440302 -5.6481583118438712 -0.29782234132289881 -1.4730239510536192 0.10994573310017587 1.5574408173561098 -0.59242853522300709 -1.3293986916542051 -0.8976972997188567 -0.77741947770118702 -0.56852233409881581 -0.072138864547014223 0.48980638384819036 0.24252221733331683 1.1061950325965884 0.29047068953514105 -1.4227554202079771 0.76372215151786815
decision_type=2 2 2 2 2 2 2 2 2 2 2 2 2 2 2 2 2 2 2 2 2 2 2 2 2
left_child=1 2 20 9 10 -6 7 11 -9 -2 -4 -3 13 -8 15 21 19 -18 -17 -16 23 -5 -14 -1 -11
right_child=3 6 4 14 5 -7 12 8 -10 24 -12 -13 22 -15 16 18 17 -19 -20 -21 -22 -23 -24 -25 -26
leaf_value=0.097595534849910862 -0.0058391754542271128 0.0071747323652968141 0.077933136727551422 0.098402635837194774 -0.010001853014166888 0.032223673296858983 -0.01307513669198871 0.049103978195627812 -0.013952009222429302 0.087725159434868138 0.018537965901285335 -0.0092533242043422587 -0.049967086451673991 0.018775110732859146 -0.023555541499965194 -0.03512489750292809 0.077047082199582437 0.0095503616291848 0.036639824540952652 0.025619905602205569 0.024414817141147689 0.03682261060885416 0.00020252791548286495 0.039635754971047488 0.0430780023760532
leaf_weight=4.3845224678516388 3.3617466688156137 128.4384780228138 4.6827479898929587 4.3673546314239502 67.581436187028885 13.359648972749708 21.661971300840378 5.0277206897735587 358.28166794776917 6.4764705002307856 34.159022718667984 90.903755724430084 5.9941393136978132 68.182631850242615 18.965538471937183 3.3394456207752228 4.3301283121109 130.50981298089027 4.0235833525657636 3.9800163507461539 5.3560777902603149 3.4063941240310669 4.9892217516899109 3.3408527970314008 3.7251817882061005
leaf_count=13 10 385 14 13 203 40 65 15 1079 19 102 273 18 204 57 10 13 390 12 12 16 10 15 10 11
internal_value=2.91005e-07 -0.0030983 0.010867 0.0135644 0.00628418 -0.00303236 -0.00581307 -0.00801769 -0.0130794 0.0522725 0.0256986 0.000366322 0.00692669 0.0110959 0.0105283 0.0386685 0.00782875 0.0117179 0.00409148 -0.0150258 0.0528301 0.0714188 -0.0271774 0.0725307 0.071422
internal_weight=1002.83 816.344 132.864 186.486 119.783 80.9411 683.48 582.652 363.309 13.5634 38.8418 219.342 100.828 89.8446 172.922 15.1368 157.785 134.84 7.36303 22.9456 13.0815 7.77375 10.9834 7.72538 10.2017
internal_count=3009 2452 398 557 359 243 2054 1752 1094 40 116 658 302 269 517 45 472 403 22 69 39 23 33 23 30
is_linear=0
shrinkage=0.05


Tree=6
num_leaves=26
num_cat=0
split_feature=5 5 4 34 19 8 12 6 31 1 5 9 9 7 13 27 22 27 4 35 36 24 13 24 35
split_gain=11.1481 17.5214 10.9117 12.8915 10.2909 8.25721 11.4271 7.73261 6.65713 6.54234 5.71152 4.83852 3.53973 3.47045 4.47281 6.87681 5.27175 3.16453 3.25036 2.99793 5.99956 3.48424 2.87691 0.638924 0.22689
threshold=0.23738234490156176 1.0000000180025095e-35 0.060897655785083778 -1.0000000180025095e-35 -1.5305016040802 -0.81574225425720204 -0.27239717543125147 0.82642993330955516 0.17591329663991931 1.0000000180025095e-35 -0.2493673041462898 -0.013140953145921229 0.0066628975328058013 -0.090360317379236207 0.52531391382217418 0.12357035279273988 0.42837594449520117 -0.012201787438243626 0.2854852974414826 -0.68891993165016163 0.77608767151832592 1.2511876821517947 0.47793166339397436 0.22371153533458712 0.24757345765829089
decision_type=2 2 2 2 2 2 2 2 2 2 2 2 2 2 2 2 2 2 2 2 2 2 2 2 2
left_child=1 4 3 8 19 6 -5 9 23 -6 -9 -7 -3 17 15 -15 -16 18 -4 20 -1 -21 -19 -2 -14
right_child=2 12 13 5 7 11 -8 10 -10 -11 -12 -13 24 14 16 -17 -18 22 -20 21 -22 -23 -24 -25 -26
leaf_value=-0.03741838924653558 0.093424949728983367 0.034498999618312709 0.019585918837184461 -0.0024492344117872196 0.0035286891697011327 -0.016822714219969819 0.041694736459593471 -0.015658070958758742 -0.0047262729565549395 0.016735622585709934 0.0099339070753981656 0.001015133792235397 0.077072477435794831 -0.049371741665534076 -0.036651005092687802 0.012049540766361113 -0.0091185199097406962 -0.033569355411244797 -0.036785894306537649 -0.0435729260407835 0.051640857857319034 0.0050477523509403488 0.0043692465917692059 0.064262222348282327 0.09522742648980792
leaf_weight=4.2550812363624599 4.1305349469184858 6.439686566591261 7.2444817423820478 39.967100352048874 301.93242317438126 74.902374386787415 23.152215182781219 69.93139585852623 3.322360634803772 136.01246991753578 31.676744371652603 77.19674688577652 3.472234845161438 5.2613695263862601 23.654335558414459 34.044965445995331 65.610652267932892 47.382072389125824 3.9520758092403412 18.567006468772892 3.403730034828186 4.5970424711704245 5.5860464870929709 3.4442829489707947 3.4120326638221741
leaf_count=13 12 19 22 120 904 227 68 210 10 404 95 231 10 16 72 103 199 144 12 57 10 14 17 10 10
internal_value=-3.65396e-07 0.00446599 -0.00622455 0.00122623 0.00314197 -0.00146019 0.0137428 0.00474719 0.0542829 0.00763036 -0.00767967 -0.00776925 0.0611452 -0.0149657 -0.010226 0.00382796 -0.0164144 -0.0244631 -0.000311775 -0.0249575 0.00216133 -0.0339239 -0.0295683 0.0801646 0.0860706
internal_weight=1002.55 583.7 418.852 226.116 570.376 215.218 63.1193 539.553 10.8972 437.945 101.608 152.099 13.324 192.736 128.571 39.3063 89.265 64.1647 11.1966 30.8229 7.65881 23.164 52.9681 7.57482 6.88427
internal_count=3009 1746 1263 678 1707 646 188 1613 32 1308 305 458 39 585 390 119 271 195 34 94 23 71 161 22 20
is_linear=0
shrinkage=0.05


Tree=7
num_leaves=28
num_cat=0
split_feature=8 16 34 6 23 18 28 18 29 18 31 32 35 7 8 11 29 24 18 13 19 23 16 35 16 29 37
split_gain=14.6731 14.6009 11.6535 9.6523 10.4563 8.76121 8.53586 7.9389 7.42099 6.6049 6.24215 6.80523 6.89848 6.22891 6.551 9.84253 6.17261 5.00658 4.81441 4.31993 3.764 3.65124 3.08894 4.72162 1.63456 0.972285 0.665048
threshold=-0.7582511007785796 0.17673958837985995 -1.0000000180025095e-35 1.3073583841323855 -0.3767740130424499 0.35720060765743261 0.59756153821945202 -0.28003589808940882 -0.57189002633094776 0.05470556020736695 0.022531128488481048 0.21931765228509906 -0.099953688681125627 -0.76856413483619679 -0.52570074796676625 -0.20332396775484082 0.25610570609569555 0.61959677934646618 0.51509729027748119 0.71008753776550304 -1.9461420178413389 0.20866819471120837 1.4815401434898379 -0.14105135947465894 0.0076967971399426469 -0.91071867942810047 -0.0073292285669594994
decision_type=2 2 2 2 2 2 2 2 2 2 2 2 2 2 2 2 2 2 2 2 2 2 2 2 2 2 2
left_child=7 13 5 4 -4 25 -7 10 -9 16 22 20 -13 14 -2 -16 -10 19 -19 -15 -12 -5 24 -24 -1 -3 -11
right_child=1 2 3 21 -6 6 -8 8 9 26 11 12 -14 17 15 -17 -18 18 -20 -21 -22 -23 23 -25 -26 -27 -28
leaf_value=-0.02532982798859015 -0.049361920911867398 -0.019037183344726871 0.00025885214305449079 -0.037415603044816045 0.022778933949082147 0.044297139364865942 -0.012042683060135149 0.073048332463090157 -0.019899989566804242 -0.020493632142955867 0.020944048360269807 0.035721540109987397 -0.014942159675252031 -0.0034490223648962442 0.06119697655106178 0.0068448087787970806 0.041839302025941445 0.041886138526148781 -0.014971404049005391 -0.016623184941239284 -0.025151567471468024 0.011430011007793731 0.037664902967461743 -0.037880715657710888 -0.042440011920849598 -0.049737673770797235 -0.049724054925078781
leaf_weight=26.98321145772934 3.9464640319347373 3.2904030084609976 69.456566691398621 11.711914241313936 199.86474791169167 9.0066000223159772 26.514079868793488 4.0431366264820126 6.6541941463947358 3.3527663350105286 4.9595816433429709 13.99273529648781 12.925267815589903 349.25708845257759 10.337754994630812 42.874175429344177 10.338172823190687 10.802072346210482 5.6812572181224814 75.715925365686417 41.368503987789154 5.6819593012332907 3.9931840598583221 4.2906886339187604 28.916892498731613 11.927382826805113 4.6374137699604026
leaf_count=82 12 10 208 35 594 27 80 12 20 10 15 42 39 1049 31 128 31 32 17 229 126 17 12 13 88 36 14
internal_value=9.53859e-08 0.00269915 0.010731 0.0146397 0.0169711 -0.0113566 0.0022428 -0.0135566 0.0102036 3.29095e-05 -0.0185749 -0.00859975 0.0113943 -0.00273665 0.0127943 0.0174041 0.0176623 -0.00474755 0.0222892 -0.00579622 -0.0202169 -0.0214595 -0.0299583 -0.00146447 -0.0341809 -0.0430996 -0.0374587
internal_weight=1002.52 836.068 337.454 286.715 269.321 50.7385 35.5207 166.456 29.0257 24.9825 137.43 73.2461 26.918 498.615 57.1584 53.2119 16.9924 441.456 16.4833 424.973 46.3281 17.3939 64.184 8.28387 55.9001 15.2178 7.99018
internal_count=3009 2505 1007 854 802 153 107 504 87 75 417 222 81 1498 171 159 51 1327 49 1278 141 52 195 25 170 46 24
is_linear=0
shrinkage=0.05


Tree=8
num_leaves=28
num_cat=0
split_feature=6 7 37 15 4 6 7 14 15 3 23 33 23 39 13 35 23 26 16 33 33 16 16 37 33 10 35
split_gain=18.5008 11.2886 10.1898 10.2266 9.262 6.85975 6.70109 10.4424 8.94934 8.49378 6.97082 6.07853 6.00698 5.5916 5.21924 5.19 4.85693 6.5986 4.63607 4.51328 5.9055 4.94529 4.20361 4.1551 4.09442 3.51453 0.000436485
threshold=0.88278087973594677 0.68474370241165172 -0.10878964141011237 -1.0144355893135069 -1.009860038757324 0.21031591296195987 0.21180908381938937 1.1411474943161013 -0.050924051553010934 0.97434729337692272 0.059037381783127792 -1.3032152652740476 -6.1490414142608634 -0.22902657091617581 -0.41875296831130976 -0.84833517670631398 -0.31865708529949183 -0.37096545100212092 -0.53799477219581593 -0.77019539475440968 0.91533759236335765 -0.74084460735321034 -0.38524582982063288 1.0000000180025095e-35 -0.9883643090724944 0.90442079305648815 -0.15501038730144498
decision_type=2 2 2 2 2 2 2 2 2 2 2 2 2 2 2 2 2 2 2 2 2 2 2 2 2 2 2
left_child=1 2 4 12 24 -6 14 8 9 -8 25 -5 -4 -3 16 -16 26 -18 -12 21 -21 -15 -17 -10 -1 -9 -2
right_child=6 13 3 11 5 -7 7 10 23 -11 18 -13 -14 19 15 22 17 -19 -20 20 -22 -23 -24 -25 -26 -27 -28
leaf_value=0.0089856957080210308 -0.049319434997268173 0.06009244559268339 0.070540359617288759 0.024545717861977418 -0.0031996583991070696 0.019508936553869226 -0.0097323509179441728 0.070148478378868756 0.0084292949979971454 0.058460805859756673 0.033607967245079771 -0.01493425844915984 0.0047347838767512803 0.080023934757349438 0.064654495712967219 0.02859795064038953 0.058208539332937764 -0.018847437020031034 -0.013471635196226954 -0.00058405669347207881 0.038957924861806707 0.0178361088157881 -0.00050242592197705875 0.067863183673368729 0.079298600635333089 0.014717855753636575 -0.050096471585505155
leaf_weight=3.3622642159461975 3.9406117498874664 5.4104126095771781 3.710910201072692 10.032019823789595 234.10423803329468 38.762241244316101 12.359425693750383 5.3857587575912458 3.3779805004596737 7.241748332977294 6.4763829708099356 346.26569750905037 52.964549779891968 3.7878656387329128 4.3516306579112998 17.611559361219406 3.6850365102291116 11.291180640459057 27.150840044021606 90.6698899269104 10.539977610111235 20.488575637340546 42.015998333692551 22.717764526605606 5.3887937664985639 6.0967378318309784 3.338348954916003
leaf_count=10 12 16 11 30 703 116 37 16 10 21 19 1048 159 11 13 52 11 34 81 271 31 61 125 67 16 18 10
internal_value=2.7e-07 -0.00314529 -0.00568355 -0.0106846 0.00165008 2.62272e-05 0.0146671 0.0241466 0.0409928 0.0154619 0.00708108 -0.0138226 0.0090435 0.0103237 0.0046849 0.0119398 -0.0161714 0.000112897 -0.00440441 0.00817791 0.00353384 0.0275393 0.00809264 0.0601697 0.0522835 0.0407171 -0.0496758
internal_weight=1002.53 825.487 694.591 412.973 281.618 272.866 177.041 90.8066 45.6969 19.6012 45.1097 356.298 56.6755 130.897 86.2344 63.9792 22.2552 14.9762 33.6272 125.486 101.21 24.2764 59.6276 26.0957 8.75106 11.4825 7.27896
internal_count=3009 2483 2093 1248 845 819 526 269 135 58 134 1078 170 390 257 190 67 45 100 374 302 72 177 77 26 34 22
is_linear=0
shrinkage=0.05


Tree=9
num_leaves=25
num_cat=0
split_feature=5 5 1 1 18 32 26 36 29 29 30 31 33 8 11 5 11 29 13 26 17 5 33 15
split_gain=10.4152 14.6519 8.56197 9.76062 8.52947 7.42067 8.88478 7.54613 7.37505 5.90685 11.9662 10.006 7.00592 6.93375 6.19413 5.03188 4.09614 4.66549 5.05292 3.24012 4.19988 2.81213 2.4145 0.0229
threshold=0.24193826317787173 1.0000000180025095e-35 1.0000000180025095e-35 0.96200117468833934 -0.30751562118530268 -0.54453217983245839 0.49284484982490545 -0.48524963855743403 0.72915279865264904 0.12247660011053087 1.1047442555427553 0.004539554938673974 0.54853922128677379 -1.1844117045402525 -0.30880518257617945 0.49881316721439367 2.9831863641738896 1.484755337238312 -0.0050494330935180179 -0.28923392295837397 -0.075025212019681917 0.74504941701889049 0.13872388005256656 0.26421467959880834
decision_type=2 2 2 2 2 2 2 2 2 2 2 2 2 2 2 2 2 2 2 2 2 2 2 2
left_child=1 2 5 22 9 6 -1 -7 -5 11 12 13 -11 -2 -13 -12 17 18 -6 -3 -21 -19 -4 -22
right_child=4 19 3 8 16 7 -8 -9 -10 10 15 14 -14 -15 -16 -17 -18 21 -20 20 23 -23 -24 -25
leaf_value=0.028420674005277747 0.050593264498733553 0.014030056852215745 0.077868325034814639 0.013298686813033487 0.0012601466257658638 0.011801773594637931 -0.034585117822279486 -0.0068489800159339731 -0.019524920945068591 -0.0069378261759900101 0.082423234108459836 -0.023378106417603892 0.068854942661050675 0.003507414864265786 0.025801354097775078 0.028258503792995861 0.027755097589567863 -0.045996403068996293 -0.015362880974389868 0.021909869423294547 0.091962674762204516 -0.0047099720185846978 0.027667169510213918 0.086379798876465685
leaf_weight=36.197815418243408 9.8357919454574567 3.7885951101779929 6.5454110503196699 142.30876362323761 63.617785394191742 66.755401015281677 6.6183791458606711 289.13843396306038 19.452502191066742 33.447837293148041 7.1225073337554958 53.00853106379509 3.3547458052635184 38.122737437486649 7.2821008265018454 10.773696660995482 6.3892031013965598 15.714021235704424 162.45330718159676 3.4116189479827872 3.4652969539165488 5.592158079147338 3.7775182723999023 3.9085076749324799
leaf_count=108 29 11 19 422 192 199 20 870 58 100 21 160 10 114 22 32 19 48 496 10 10 17 11 11
internal_value=1.54815e-06 0.00430242 0.0030384 0.0123597 -0.00603998 -0.000984681 0.0186815 -0.00335064 0.0093515 0.002887 0.016279 -0.00388007 -2.89233e-05 0.0131642 -0.017438 0.0498155 -0.0117722 -0.0127931 -0.0106851 0.0538078 0.0677806 -0.0351601 0.059498 0.0890035
internal_weight=1002.08 585.368 570.794 172.084 416.714 398.71 42.8162 355.894 161.761 162.948 54.6988 108.249 36.8026 47.9585 60.2906 17.8962 253.766 247.377 226.071 14.574 10.7854 21.3062 10.3229 7.3738
internal_count=3009 1749 1707 510 1260 1197 128 1069 480 488 163 325 110 143 182 53 772 753 688 42 31 65 30 21
is_linear=0
shrinkage=0.05


Tree=10
num_leaves=28
num_cat=0
split_feature=15 5 24 31 3 23 14 4 5 15 16 32 8 28 13 16 30 37 32 19 38 24 16 27 39 33 16
split_gain=14.1526 14.0968 12.1894 9.52817 7.68886 6.99004 6.90479 11.9867 5.78218 6.66018 6.03313 5.64825 4.85948 4.75701 6.39435 4.23742 4.11731 4.32879 4.77963 3.6823 4.67938 3.34037 2.29235 1.28571 0.657951 0.271924 0.000318788
threshold=-2.4397987127304073 0.49881316721439367 0.38527050614357 -0.17639999836683271 1.0000000180025095e-35 -1.7085554599761961 -0.085826773196458803 0.63759076595306408 0.50700753927230846 -0.91452348232269276 -0.63756000995635975 -0.93228930234909047 -0.32033351063728327 -0.049125099554657929 0.86499205231666576 0.10745396092534067 1.9202135205268862 -3.8470389842987056 0.21931765228509906 -1.5305016040802 -0.63417804241180409 0.30226930975914007 0.43412610888481146 -0.1384223327040672 3.0579572916030888 -1.4398680329322813 -0.21219845116138455
decision_type=2 2 2 2 2 2 2 2 2 2 2 2 2 2 2 2 2 2 2 2 2 2 2 2 2 2 2
left_child=13 2 11 6 5 -4 21 -8 10 -10 -5 23 -13 16 19 -6 17 18 -1 -15 -21 -3 -19 -2 25 -18 -16
right_child=1 3 4 8 15 -7 7 -9 9 -11 -12 12 -14 14 26 -17 24 22 -20 20 -22 -23 -24 -25 -26 -27 -28
leaf_value=-0.017424174047220808 -0.016161066439319284 -0.0032843020307543012 -0.01137800234734284 -0.0068213131744075828 0.035249720542331879 0.017411691951815331 0.027085792553132499 -0.016602134263755546 0.062427959648170842 0.0063479681626730945 0.036419548291575295 -0.014367275907014386 -0.0023260993863727561 0.054306224415025785 -0.04828720701756134 -0.014904491307552004 -0.033076201742478044 -0.032084904851731079 0.0582085204982754 -0.04943423000165538 0.0069442283348322299 -0.034103634450249339 0.0034325824821231491 -0.048533157075363709 -0.024534480250416064 -0.048941873941056008 -0.048973491114160828
leaf_weight=4.8254197835922223 4.5647694468498221 19.284665912389755 24.808949023485184 9.2927962243556959 4.6800732910633078 140.40782576799393 40.210250496864319 25.758329272270203 5.7395769953727713 68.246278643608093 61.136829704046249 114.32874751091003 313.68605098128319 3.3458848297595969 3.2053505182266235 42.054570138454437 3.2255360186100068 23.50592336058617 3.6834138929843903 4.2789275646209743 26.314522296190262 16.159013330936432 5.6312889456748954 9.349237918853758 4.181416541337966 16.596641480922699 3.5843391418457022
leaf_count=15 14 58 75 28 14 414 118 78 17 202 180 348 945 10 10 128 10 72 11 13 79 49 17 29 13 51 11
internal_value=-8.37661e-07 0.00200358 -0.00183389 0.0122109 0.00802368 0.0130886 0.000464101 0.0100272 0.0204599 0.0106985 0.0307142 -0.00656164 -0.00554247 -0.0176158 -0.00435572 -0.00988198 -0.0263761 -0.0160582 0.0153167 0.00450542 -0.000941098 -0.017335 -0.0252205 -0.0379128 -0.0425581 -0.0463602 -0.0486495
internal_weight=1002.09 899.708 653.88 245.828 211.951 165.217 101.412 65.9686 144.415 73.9859 70.4296 441.929 428.015 102.379 40.729 46.7346 61.6496 37.646 8.50883 33.9393 30.5934 35.4437 29.1372 13.914 24.0036 19.8222 6.78969
internal_count=3009 2697 1967 730 631 489 303 196 427 219 208 1336 1293 312 123 142 189 115 26 102 92 107 89 43 74 61 21
is_linear=0
shrinkage=0.05


Tree=11
num_leaves=29
num_cat=0
split_feature=6 9 7 12 6 13 16 9 7 14 9 23 3 14 26 12 7 13 9 35 23 26 16 14 35 16 35 35
split_gain=16.6004 10.3469 11.4787 9.12861 8.15076 7.38139 6.80568 6.28156 6.12838 9.54875 8.2793 7.568 5.91146 5.4588 5.17862 5.54565 5.23693 4.86958 4.65917 5.12348 4.64547 6.06451 4.55082 4.28523 2.92119 2.67264 0.819532 0.000461092
threshold=0.88278087973594677 -1.8010043501853941 0.68474370241165172 -0.73980763554573048 0.60265696048736583 -0.72026008367538441 -0.85458576679229725 -0.044828759506344788 0.21180908381938937 1.2202680706977846 -0.001937789376825094 0.059037381783127792 0.97434729337692272 -0.24400520324707028 -1.010300278663635 0.1226676069200039 -0.0083881267346441728 -0.41875296831130976 1.4651258587837221 -0.84833517670631398 -0.31865708529949183 -0.37096545100212092 -0.53799477219581593 -0.19760696589946744 1.0000000180025095e-35 -0.318477913737297 0.67437317967414867 -0.15501038730144498
decision_type=2 2 2 2 2 2 2 2 2 2 2 2 2 2 2 2 2 2 2 2 2 2 2 2 2 2 2 2
left_child=1 4 3 5 14 -3 -5 23 17 10 12 24 -10 -9 15 -1 -16 20 19 -19 27 -22 -13 -4 -11 -12 -20 -2
right_child=8 2 7 6 -6 -7 -8 13 9 11 25 22 -14 -15 16 -17 -18 18 26 -21 21 -23 -24 -25 -26 -27 -28 -29
leaf_value=0.070263352418335936 -0.048638912057330994 -0.042203937383037141 -0.0018556635885324498 0.01748093980215697 -0.050079373408061928 0.012882232999246946 -0.010827663374290723 0.04377702149209655 -0.0040653435274009995 0.079395336043360965 0.039949054561115055 0.033112804642701631 0.050410302783636479 0.010281842219551782 0.029448794530805442 -0.0052018658843673007 -0.0034563318755157879 0.069984962553012106 -0.039311852883806349 0.012031748787446648 0.054878151762368516 -0.018476692814704647 -0.015628453306376903 -0.050181531842170002 0.024154356880638883 0.071707679725068196 -0.0065618183804317283 -0.049443364090636835
leaf_weight=8.9822277128696424 3.8794719278812408 6.627468913793563 23.747539252042774 22.118976682424545 4.3370898962020865 73.786125987768173 528.98325660824776 14.233972847461699 14.049315184354784 3.4325987398624402 12.465558528900148 5.8667372465133694 7.7145580947399131 83.639745205640793 24.95398253202438 3.3395491838455191 23.459243953228 4.1127448976039878 4.3855114281177512 52.455506205558777 3.760355383157731 11.238385349512097 26.066304206848145 5.6855483651161185 7.9033977389335632 14.137791872024534 3.3843503892421722 3.2934421002864864
leaf_count=26 12 20 71 66 13 221 1605 42 42 10 36 17 22 248 74 10 70 12 13 155 11 34 78 17 23 41 10 10
internal_value=-7.1062e-07 -0.00299325 -0.00463409 -0.00739517 0.0161411 0.00834218 -0.00969147 0.00906247 0.0138393 0.0228499 0.0381158 0.00578524 0.0152444 0.0151531 0.0208699 0.0498101 0.0135042 0.00429469 0.0112585 0.0162452 -0.0159131 -8.57966e-05 -0.00667371 -0.0111907 0.0408816 0.0568265 -0.0250468 -0.0490083
internal_weight=1002.04 823.895 758.823 631.516 65.0721 80.4136 551.102 127.307 178.146 91.6363 48.3672 43.269 21.7639 97.8737 60.735 12.3218 48.4132 86.5098 64.3381 56.5683 22.1717 14.9987 31.933 29.4331 11.336 26.6034 7.76986 7.17291
internal_count=3009 2483 2290 1912 193 241 1671 378 526 269 141 128 64 290 180 36 144 257 190 167 67 45 95 88 33 77 23 22
is_linear=0
shrinkage=0.05


Tree=12
num_leaves=25
num_cat=0
split_feature=5 5 4 34 19 14 31 33 39 29 14 35 14 32 23 16 16 9 35 36 24 31 35 6
split_gain=9.45273 14.6459 9.52276 11.5348 9.22485 7.43064 6.07067 5.97771 5.42664 7.30224 6.18831 4.89405 3.42503 4.38452 4.69011 3.48706 5.20421 2.95031 2.91523 5.54963 3.38064 0.632774 0.218007 0.00049644
threshold=0.23738234490156176 1.0000000180025095e-35 0.060897655785083778 -1.0000000180025095e-35 -1.5305016040802 0.73625397682189953 0.17591329663991931 0.11252098903059961 1.8157276511192324 0.12759838253259662 -0.7778038978576659 -0.87714558839797963 1.7059813737869265 0.2999709844589234 0.68700551986694347 -0.85458576679229725 -0.65925762057304371 0.0066628975328058013 -0.68891993165016163 0.77608767151832592 1.2511876821517947 -0.047250570729374879 0.24757345765829089 0.65635338425636303
decision_type=2 2 2 2 2 2 2 2 2 2 2 2 2 2 2 2 2 2 2 2 2 2 2 2
left_child=1 4 3 6 18 7 21 -6 10 -10 -5 -7 15 -14 -15 23 -17 -3 19 -1 -20 -2 -19 -4
right_child=2 17 12 8 5 11 -8 -9 9 -11 -12 -13 13 14 -16 16 -18 22 20 -21 -22 -23 -24 -25
leaf_value=-0.036068275273845839 0.088173089752522318 0.030941688292157057 -0.048328181552908189 0.0086396575696814533 0.002410952902603342 0.034913016202456425 -0.0054447189412993252 0.014347729683439043 -0.0047689434762518629 0.043489318656272029 -0.011014633997880942 -0.01012278406035602 0.044607087491079216 0.016047441210860432 -0.041312371748688008 0.015517581233841655 -0.017330241094481336 0.068625114487812319 -0.042593881324994212 0.049838517602921489 0.0054995849656512674 0.059505789343066044 0.086069334495457644 -0.047550060885183452
leaf_weight=4.1470174491405514 4.2311424314975739 6.5939731895923597 4.4915764927864057 59.100396782159805 256.87494346499443 6.4171024262905112 3.3447986245155334 177.25525107979774 16.76940876245499 14.719479560852049 124.24290227890015 100.63346642255783 5.2972301840782192 8.3209641575813276 6.2334579527378073 13.119390606880186 149.06946182250977 3.6062696576118469 18.163723438978199 3.4389261901378632 4.5741701722145072 3.5316130220890027 3.5582525432109833 3.7705685794353485
leaf_count=13 12 19 14 176 764 19 10 527 51 43 376 303 16 25 19 40 459 10 57 10 14 10 10 12
internal_value=2.35732e-06 0.00409892 -0.00575767 0.00118305 0.00287168 0.00437538 0.0508674 0.00728474 -0.0013858 0.0177894 -0.00467911 -0.00742313 -0.0139981 0.00565722 -0.00851897 -0.0162873 -0.0146732 0.0550762 -0.0239644 0.00287574 -0.0329189 0.0751311 0.0772888 -0.0479731
internal_weight=1001.51 585.263 416.242 225.94 571.505 541.181 11.1076 434.13 214.832 31.4889 183.343 107.051 190.303 19.8517 14.5544 170.451 162.189 13.7585 30.3238 7.58594 22.7379 7.76276 7.16452 8.26215
internal_count=3009 1746 1263 678 1707 1613 32 1291 646 94 552 322 585 60 44 525 499 39 94 23 71 22 20 26
is_linear=0
shrinkage=0.05


Tree=13
num_leaves=27
num_cat=0
split_feature=15 5 24 4 14 37 20 4 37 28 10 32 27 5 28 13 30 14 19 38 28 14 27 35 24 16
split_gain=13.1271 12.7345 11.2596 8.79867 10.7294 10.9051 6.96357 6.88604 6.49682 6.51577 5.82224 5.30439 5.28473 4.69901 4.46559 6.11694 3.94951 4.19266 3.3942 4.4063 3.15762 2.60399 1.2647 0.898446 0.288405 0.000342213
threshold=-2.4397987127304073 0.49881316721439367 0.38527050614357 0.66458415985107433 -0.082242924720048891 0.20773504674434665 0.94915708899497997 0.88485521078109752 -2.0299731492996211 3.3298950195312504 0.90442079305648815 -0.93228930234909047 0.68153423070907604 0.26380020380020147 -0.049125099554657929 0.86499205231666576 1.9202135205268862 -2.1683267354965206 -1.5305016040802 -0.63417804241180409 0.42610199749469763 -1.4303210973739622 -0.1384223327040672 0.43443565070629125 -0.58142897486686695 -0.21219845116138455
decision_type=2 2 2 2 2 2 2 2 2 2 2 2 2 2 2 2 2 2 2 2 2 2 2 2 2 2
left_child=14 2 11 4 5 -3 -6 20 12 -10 -9 22 -4 -13 16 18 17 -1 -16 -20 -5 -19 -2 24 -18 -17
right_child=1 3 8 7 6 -7 -8 10 9 -11 -12 13 -14 -15 15 25 23 21 19 -21 -22 -23 -24 -25 -26 -27
leaf_value=0.025741256185468221 -0.01532291140708807 -0.0024511220187070568 -0.035555153046453174 0.0075407219427098523 0.032794510875926816 0.044253962998422491 -0.0041667098749091167 0.039033693122343199 0.012434833726733201 -0.035862906075013988 -0.020021934148334579 -0.0046936774728918952 0.018907522375205092 -0.049503784761079167 0.051781759791977737 -0.047595765355942142 -0.031594658579885929 -0.048397894497015925 -0.048522410638327476 0.0066812448564094601 -0.033482842571018474 -0.014525407145010312 -0.047671803100737993 -0.017040765776668881 -0.048079828584030065 -0.048313037112306632
leaf_weight=5.2884156703948966 4.5136759281158438 85.44879013299942 14.446292519569399 6.0378220081329372 87.398131787776947 14.63925927877426 14.91843596100807 10.657104790210726 184.27696070075035 7.2582174837589255 6.8601672351360312 420.93635839223862 6.4396567642688742 5.9329814910888663 3.3994850218296042 3.1457570195198059 3.1372140645980897 7.3672935068607321 4.1888437867164638 26.374677956104279 21.022860616445541 24.685705602169037 9.1388811469078046 3.2018679082393637 17.193566024303436 3.5277468860149375
leaf_count=16 14 255 44 18 254 43 44 32 546 22 21 1275 19 18 10 10 10 23 13 79 63 76 29 10 54 11
internal_value=-2.83773e-06 0.00191979 -0.00173829 0.0115906 0.0160195 0.00438014 0.0274053 -0.00851863 0.00771708 0.0106046 0.0159061 -0.0062977 -0.018763 -0.00531649 -0.0170476 -0.00421214 -0.0256159 -0.0155056 0.00438696 -0.00088462 -0.0243296 -0.0223109 -0.0369769 -0.0416589 -0.045536 -0.0479749
internal_weight=1001.44 899.926 652.943 246.983 202.405 100.088 102.317 44.578 212.421 191.535 17.5173 440.522 20.8859 426.869 101.511 40.6365 60.8741 37.3414 33.963 30.5635 27.0607 32.053 13.6526 23.5326 20.3308 6.6735
internal_count=3009 2697 1967 730 596 298 298 134 631 568 53 1336 63 1293 312 123 189 115 102 92 81 99 43 74 64 21
is_linear=0
shrinkage=0.05


Tree=14
num_leaves=29
num_cat=0
split_feature=6 7 9 12 35 35 36 31 7 14 15 3 23 39 13 23 26 9 9 33 14 16 23 35 37 35 16 35
split_gain=15.2368 9.51957 10.1863 9.49526 6.93408 6.85061 6.04246 6.99837 5.59232 8.73361 7.51961 7.15796 5.75693 4.90084 4.51832 4.48212 5.59117 4.38294 4.21088 7.80619 4.11285 4.08194 3.99105 3.69268 3.60122 2.9835 2.64978 0.00046596
threshold=0.88278087973594677 0.68474370241165172 -1.7351227998733518 -0.73980763554573048 -1.9204231500625608 -0.10640355944633482 0.5525871515274049 0.30427575111389166 0.21180908381938937 1.1411474943161013 -0.050924051553010934 0.97434729337692272 0.059037381783127792 -0.22902657091617581 -0.41875296831130976 -0.31865708529949183 -0.37096545100212092 0.71256679296493541 0.0026773380814120178 -0.58577281236648548 0.70960620045661937 -0.75827842950820912 11.872617244720461 -0.84833517670631398 1.0000000180025095e-35 1.0000000180025095e-35 -1.0000000180025095e-35 -0.15501038730144498
decision_type=2 2 2 2 2 2 2 2 2 2 2 2 2 2 2 2 2 2 2 2 2 2 2 2 2 2 2 2
left_child=1 2 6 5 -5 -4 7 -1 14 10 11 -10 25 -3 15 27 -17 23 19 -15 -19 -14 -20 -16 -12 -11 -8 -2
right_child=8 13 3 4 -6 -7 26 -9 9 12 24 -13 21 18 17 16 -18 20 22 -21 -22 -23 -24 -25 -26 -27 -28 -29
leaf_value=0.024353149152816195 -0.047945781315152675 0.055380227457575919 -0.00783469626554994 0.022121238211668972 -0.01053122750642658 0.021823895244401027 0.003000501536530178 -0.050234045472974415 -0.0098039156736719445 0.074810485622678835 0.0063039005641531524 0.052153378614090008 0.046688576770242851 0.018719183119156355 0.06411058511146471 0.052245046175586465 -0.01785886736283852 -0.050794522633361198 0.017928916082791443 -0.020725583696890617 0.0088406477688971943 -0.010340940116139155 -0.029533610326230503 0.013220973312173144 0.061086827096561228 0.019848393139233287 -0.050225172202664238 -0.04876125999536432
leaf_weight=52.28798520565033 3.8101890683174133 5.5598629117012015 34.332437634468079 16.774048507213593 529.63937199115753 44.976445615291595 4.6845363080501556 3.3461696505546561 12.356392174959185 3.5120040774345389 3.4374566376209286 7.485922545194625 3.5029646456241599 22.108239442110062 3.844747692346572 3.8184180259704599 11.147535264492031 5.0691331028938276 70.427329242229462 28.990611165761948 6.7292439937591553 30.088093280792236 4.7264539301395407 48.940886646509171 23.564003229141235 8.3148274719715101 4.6688414514064771 3.2423901259899166
leaf_count=154 12 16 103 51 1613 134 14 10 37 10 10 21 10 65 11 11 34 15 208 87 20 90 14 144 67 24 14 10
internal_value=4.80224e-07 -0.00287562 -0.00522544 -0.00718228 -0.00952885 0.00898483 0.0136157 0.019867 0.0132265 0.0217921 0.0369397 0.0135708 0.00616893 0.00943768 0.00410112 -0.0154585 2.74672e-05 0.0107696 0.00741448 -0.00365956 -0.0167814 -0.00439375 0.014944 0.0169276 0.0541126 0.0361695 -0.0235677 -0.0483207
internal_weight=1001.39 822.522 690.71 625.722 546.413 79.3089 64.9875 55.6342 178.864 92.2617 46.8438 19.8423 45.4179 131.812 86.6025 22.0185 14.966 64.584 126.253 51.0989 11.7984 33.5911 75.1538 52.7856 27.0015 11.8268 9.35338 7.05258
internal_count=3009 2483 2093 1901 1664 237 192 164 526 269 135 58 134 390 257 67 45 190 374 152 35 100 222 155 77 34 28 22
is_linear=0
shrinkage=0.05


Tree=15
num_leaves=27
num_cat=0
split_feature=13 9 15 23 19 38 13 23 7 1 5 33 26 7 30 8 32 13 33 4 31 22 26 23 33 24
split_gain=8.72131 9.25304 10.998 6.83493 8.53972 9.70053 6.51173 7.05991 5.92514 6.48912 5.88621 5.32508 6.58976 5.19712 7.93489 8.1088 4.96678 5.67631 5.26953 4.14286 3.5679 2.88242 2.16634 2.97386 0.737308 0.200726
threshold=0.21213039010763171 -0.22277258336544034 0.13385797291994098 -1.2802503108978269 -0.50301820039749134 -0.2783565074205398 0.37157388031482702 -1.406751215457916 -0.79464340209960926 1.0000000180025095e-35 0.67015179991722118 -0.37575873732566828 0.46035699546337133 -0.45680865645408625 -0.087585501372814165 -0.01765427645295858 0.15956795215606692 -0.18592882156372068 0.087185535579919829 0.28057506680488592 -2.0784561634063716 -0.78057765960693348 0.27947035431861883 -0.022916186600923535 0.044080210849642761 -1.0000000180025095e-35
decision_type=2 2 2 2 2 2 2 2 2 2 2 2 2 2 2 2 2 2 2 2 2 2 2 2 2 2
left_child=1 2 16 8 10 -6 13 -8 -3 -10 -5 20 -13 14 25 -16 18 -18 -1 21 -9 -4 23 -15 -24 -2
right_child=6 3 19 4 5 -7 7 11 9 -11 -12 12 -14 22 15 -17 17 -19 -20 -21 -22 -23 24 -25 -26 -27
leaf_value=0.00073216681066253853 -0.049650091074572508 -0.037263179224164951 0.011204104371001194 -0.017584812834055198 0.025638084806001989 0.0035512676426910071 0.069624747568314244 0.028002738198419076 0.014448885262688655 0.046967480945703494 0.027499143252078098 0.0078868519475155368 -0.0092180922765229753 0.012150843449358927 -0.014537533294025837 0.055411452162240915 -0.0021273487187393812 -0.044753685585917524 0.024841545247438798 0.023606862142978965 -0.017669091783055712 -0.032956808196296636 -0.025122879129595311 -0.027512341870402725 -0.049394525406611905 -0.033150168640823874
leaf_weight=95.430979400873184 4.293877899646759 3.9746319949626914 4.0431560873985282 54.076361447572708 65.929049849510193 202.11460304260254 3.3374795019626609 4.5477138161659232 44.993707180023193 23.278451681137085 8.3590194880962354 127.37757271528244 100.91898363828659 5.6414731442928305 8.55464464426041 8.0343919098377192 28.023553818464279 10.827556788921354 29.72320094704628 4.0406468808650962 71.617114692926407 42.917898386716843 4.2149132788181332 29.119966149330139 12.143405497074125 3.2296059131622341
leaf_count=284 13 12 12 163 195 604 10 14 133 68 25 385 308 17 26 24 84 33 88 12 220 131 13 88 37 10
internal_value=3.53247e-06 0.00367899 -0.00469611 0.00815029 0.00510471 0.00898383 -0.00592406 -0.00270099 0.0220817 0.0255366 -0.0115488 -0.00349382 0.000325575 -0.0191107 2.40739e-05 0.0193401 0.00161003 -0.014007 0.00645797 -0.0249747 -0.0149421 -0.0291547 -0.0281363 -0.0210754 -0.0431407 -0.0425672
internal_weight=1000.76 617.733 215.007 402.726 330.479 268.044 383.031 307.799 72.2468 68.2722 62.4354 304.461 228.297 75.2323 24.1125 16.589 164.005 38.8511 125.154 51.0017 76.1648 46.9611 51.1198 34.7614 16.3583 7.52348
internal_count=3009 1844 644 1200 987 799 1165 937 213 201 188 927 693 228 73 50 489 117 372 155 234 143 155 105 50 23
is_linear=0
shrinkage=0.05


Tree=16
num_leaves=23
num_cat=0
split_feature=15 7 5 24 36 30 36 31 14 32 35 4 13 36 29 36 25 36 32 31 16 16
split_gain=12.234 11.5785 11.7311 10.9624 8.13826 7.3805 6.98088 7.64224 5.77207 4.53663 3.96068 3.85104 4.15427 4.27192 4.458 4.26348 2.56787 1.74971 1.50151 1.10809 0.778529 0.000472061
threshold=-2.4397987127304073 0.98333248496055614 0.49881316721439367 0.3748783022165299 -0.32997085154056544 -0.049038346856832497 1.6518633365631106 0.018483641557395462 2.8324817419052128 -0.61393195390701283 -0.3408131450414657 -0.69401380419731129 0.86499205231666576 0.20263914763927462 0.20923749357461932 -0.13510364294052121 0.96171417832374584 1.687397360801697 2.6743015050888066 0.19731835275888446 -0.58340179920196522 -0.21219845116138455
decision_type=2 2 2 2 2 2 2 2 2 2 2 2 2 2 2 2 2 2 2 2 2 2
left_child=11 2 3 9 -5 18 7 -4 10 -2 -7 16 13 15 -15 -13 17 20 19 -3 -1 -14
right_child=1 5 6 4 -6 8 -8 -9 -10 -11 -12 12 21 14 -16 -17 -18 -19 -20 -21 -22 -23
leaf_value=-0.016847297340453135 -0.014681487294667731 -0.033427833960471186 0.0033238477216072878 -0.0030321540199420042 0.01826022576235117 0.02088107784151701 0.081203861208077405 0.022021902040196287 0.059223320854883521 -0.0017464938243341886 -0.012272491773671731 -0.0055209092032259743 -0.046893946975708922 -0.0070427839752048946 0.039992057460963508 -0.043379647979789188 0.003736306849491812 -0.00072003386903537363 0.0019975395375226817 -0.010904097135908002 -0.043254055040164108 -0.047744196500550388
leaf_weight=3.1785065531730714 88.327310830354691 39.134552180767059 111.08111569285393 73.405639141798019 115.47033241391182 11.291000843048094 3.7634329795837393 107.56432792544365 3.6626222729682913 291.4825142621994 44.561524599790573 29.547939360141754 3.0794143974781036 11.796934753656389 8.7926268577575666 9.9376301765441877 4.7860054671764365 3.1742885112762442 3.911703795194625 6.346000909805297 22.903782099485397 3.4742573499679557
leaf_count=10 270 121 328 218 341 34 11 313 11 883 136 90 10 36 26 31 15 10 12 19 73 11
internal_value=-4.66853e-06 0.00184435 0.00394856 0.000140831 0.00998506 -0.0134405 0.0136847 0.0125225 -0.00158279 -0.00475461 -0.00557025 -0.0165348 -0.0095447 -0.00542105 0.0130431 -0.0150491 -0.0302161 -0.0357703 -0.0277284 -0.030285 -0.040036 -0.0473447
internal_weight=1000.67 900.002 791.095 568.686 188.876 108.907 222.409 218.645 59.5151 379.81 55.8525 100.671 66.6288 60.0751 20.5896 39.4856 34.0426 29.2566 49.3923 45.4806 26.0823 6.55367
internal_count=3009 2697 2364 1712 559 333 652 641 181 1153 170 312 204 183 62 121 108 93 152 140 83 21
is_linear=0
shrinkage=0.05


Tree=17
num_leaves=29
num_cat=0
split_feature=6 24 33 12 4 9 7 15 11 7 14 9 23 16 3 16 36 3 29 24 9 26 15 26 26 13 4 23
split_gain=14.0793 8.99288 7.98257 11.929 7.05804 9.49909 6.65442 6.18431 5.32801 5.12511 8.07317 7.32315 6.24007 4.91915 4.88124 4.85305 5.27819 4.59424 4.45947 7.60957 5.44936 5.13945 4.33523 4.22734 3.82715 3.0567 2.94169 2.66872
threshold=0.88278087973594677 -0.79152491688728321 -0.87803989648818959 0.40545001626014715 0.63759076595306408 -0.51238861680030812 0.98333248496055614 -0.94619372487068165 0.20240975916385653 0.21180908381938937 1.1949450969696047 -0.088758699595928178 0.059037381783127792 -0.53799477219581593 0.97434729337692272 -0.87645387649536122 -0.4780807346105575 0.97434729337692272 -0.017396471463143822 -0.35113687813282007 0.38325321674346929 -0.81883138418197621 0.31235402822494512 1.326321065425873 -0.37096545100212092 0.96875843405723583 1.1406801939010622 -0.041472099721431725
decision_type=2 2 2 2 2 2 2 2 2 2 2 2 2 2 2 2 2 2 2 2 2 2 2 2 2 2 2 2
left_child=1 7 3 22 5 -4 -6 -1 -5 18 11 14 26 -14 -11 17 -17 -9 21 24 -21 27 -3 -23 -20 -13 -12 -2
right_child=9 2 4 8 6 -7 -8 15 -10 10 12 25 13 -15 -16 16 -18 -19 19 20 -22 23 -24 -25 -26 -27 -28 -29
leaf_value=0.079540087047340446 0.0026676973134814996 0.019799407213314534 0.0030425731764581404 -0.049692777269941334 -0.0041564933711990028 -0.011693633273712336 0.023046727692445524 0.018862632528332635 0.014156406750392312 -0.010519103769717326 0.058407661993012686 0.041997332333847483 0.033750488856433461 -0.015416475663350465 0.050089539777698512 0.050518823365226333 -0.012454410585473672 0.077787458488693909 0.088418274499568683 0.012108445458405679 -0.041855436763821557 -0.021855369551383973 -0.036031514932129839 0.021137846130702978 0.029632867281476783 0.084441407953994629 0.0074838731250146942 0.063715832089849933
leaf_weight=3.792607754468917 3.7183257937431335 76.324315667152405 145.67559882998466 10.911377996206282 55.949173897504807 438.65170320868492 37.580858528614044 15.658927589654924 4.663915127515792 11.331356614828112 6.6936014890670759 27.568765968084335 6.3136686086654654 26.189441323280334 4.699868530035018 3.9852434992790249 20.15988102555275 4.1938933730125418 3.5212857425212887 18.230287015438083 6.2931291162967673 31.482903450727463 3.6429419815540305 6.9862703680992118 12.954525440931318 5.0132530927658072 4.920747697353363 3.4522982239723197
leaf_count=11 11 226 437 33 169 1341 110 46 14 34 19 78 18 79 13 12 61 12 10 54 19 94 11 21 38 14 14 10
internal_value=1.13589e-06 -0.00277086 -0.00407152 0.00945885 -0.0059786 -0.00801983 0.0067739 0.018278 -0.0305736 0.0126919 0.0208613 0.0349156 0.00537484 -0.00586588 0.00724951 0.0129972 -0.00206044 0.0313105 0.00394804 0.0159165 -0.00173961 -0.0068035 0.017256 -0.0140475 0.0421968 0.048528 0.0368324 0.0320593
internal_weight=1000.56 821.19 773.4 95.5426 677.857 584.327 93.53 47.7906 15.5753 179.37 92.7307 48.6132 44.1175 32.5031 16.0312 43.9979 24.1451 19.8528 86.639 40.9992 24.5234 45.6398 79.9673 38.4692 16.4758 32.582 11.6143 7.17062
internal_count=3009 2483 2341 284 2057 1778 279 142 47 526 269 139 130 97 47 131 73 58 257 121 73 136 237 115 48 92 33 21
is_linear=0
shrinkage=0.05


Tree=18
num_leaves=27
num_cat=0
split_feature=5 5 19 8 19 30 6 26 3 28 29 5 19 5 31 24 6 28 7 8 35 36 24 26 30 24
split_gain=8.38779 13.1694 8.25623 7.64333 11.1195 7.93133 6.20503 7.80774 5.65779 9.30732 5.75065 5.63994 5.35904 5.16834 4.97103 3.32359 5.34659 3.19241 3.00238 2.84872 2.74803 5.16799 3.32745 2.27366 2.26329 0.536684
threshold=0.23738234490156176 1.0000000180025095e-35 -1.5305016040802 -0.81574225425720204 0.17896898090839389 1.1169957518577578 0.82642993330955516 0.47656278312206274 0.052903314121067531 -0.38575057685375208 0.22507207095623019 0.64208331704139721 -1.2034413218498228 -0.2493673041462898 0.031215832568705085 0.87949830293655407 -1.4550662040710447 -0.59968248009681691 0.17967817932367328 -0.048607615754008286 -0.68891993165016163 0.77608767151832592 1.2511876821517947 -0.28923392295837397 -0.07747796922922133 0.2660843431949616
decision_type=2 2 2 2 2 2 2 2 2 2 2 2 2 2 2 2 2 2 2 2 2 2 2 2 2 2
left_child=1 2 20 4 5 11 7 -4 15 17 -11 -2 -7 -8 25 16 -5 -10 -16 -17 21 -1 -22 -3 -25 -6
right_child=3 23 6 8 14 12 13 -9 9 10 -12 -13 -14 -15 18 19 -18 -19 -20 -21 22 -23 -24 24 -26 -27
leaf_value=-0.035133937282105239 -0.024966913909626683 0.017103504826378676 0.010238117241248738 0.038825448908269111 0.089689534279999372 0.063522154318858881 -0.014776539092723338 -0.0056645398882690413 0.019033561759413738 0.0088590200486544229 -0.022164554223274711 0.017121783954876037 0.0049850139687863046 0.0096045988466714628 -0.012524673702333495 -0.039881735487074327 -0.010497463886633859 0.078537611303519619 0.047897842610431667 -0.01475633455504357 -0.041584525731687139 0.047935679352876744 0.0064434405040276616 0.030955910223397356 0.08017184980143037 0.062551833913097682
leaf_weight=4.0637761950492886 28.311565965414047 3.5251448452472678 341.78074380755424 5.6383541226387015 3.8469178378581992 6.5037823319435146 69.062860101461411 99.698590397834778 4.1671736538410187 39.369693636894226 24.069680064916611 11.072313249111174 9.8033944666385633 31.719155341386795 3.7888836562633497 17.374675571918488 215.19078803062439 4.9098175168037397 4.495019793510437 32.168650478124619 17.701497554779056 3.4719365537166595 4.5289948582649222 3.5277990102767935 6.9144832193851462 3.4608733654022217
leaf_count=13 86 10 1010 17 11 19 210 298 12 120 74 33 29 95 11 54 661 14 13 99 57 10 14 10 19 10
internal_value=5.78032e-06 0.00385525 0.00268398 -0.00544068 0.00945655 -0.000992446 0.00409136 0.00664684 -0.00853765 0.00386402 -0.00291171 -0.0131342 0.0283313 -0.00710306 0.0467787 -0.0118639 -0.00923812 0.0512198 0.0202619 -0.0235677 -0.0229547 0.00313881 -0.0317998 0.0518238 0.0635448 0.0768375
internal_weight=1000.17 585.995 572.028 414.172 71.2828 55.6911 542.261 441.479 342.889 72.5164 63.4394 39.3839 16.3072 100.782 15.5917 270.372 220.829 9.07699 8.2839 49.5433 29.7662 7.53571 22.2305 13.9674 10.4423 7.30779
internal_count=3009 1746 1707 1263 212 167 1613 1308 1051 220 194 119 48 305 45 831 678 26 24 153 94 23 71 39 29 21
is_linear=0
shrinkage=0.05


Tree=19
num_leaves=30
num_cat=0
split_feature=8 5 24 4 18 19 36 13 7 4 20 18 14 31 11 22 26 12 32 15 22 23 24 24 9 31 35 27 6
split_gain=11.7111 14.2321 11.6103 9.61714 6.74709 6.63895 7.95718 6.67153 6.37729 6.19605 6.05382 9.34108 6.4126 5.96992 5.90721 6.88044 5.63336 5.15781 4.76493 4.99554 4.62104 2.86816 2.73012 4.00911 2.20207 1.68682 1.52892 1.24002 0.00214701
threshold=-0.7582511007785796 0.49881316721439367 0.38527050614357 0.66458415985107433 -0.28003589808940882 0.38716717064380651 -0.54180997610092152 0.025483099743723873 0.1660171449184418 0.88485521078109752 0.36539106070995336 0.59481266140937816 -0.082242924720048891 0.022531128488481048 -0.48995418846607203 -0.39637200534343714 -0.93180447816848744 1.646676301956177 -0.93228930234909047 -0.13710044324398038 0.018348379060626033 6.0280334949493417 1.7317144274711611 2.7914963960647587 -0.31829452514648432 -0.16216790676116941 0.41118681430816656 -0.1384223327040672 0.11882887780666353
decision_type=2 2 2 2 2 2 2 2 2 2 2 2 2 2 2 2 2 2 2 2 2 2 2 2 2 2 2 2 2
left_child=4 2 18 10 13 6 -4 -7 16 21 12 -12 -3 22 15 -15 24 -11 27 -20 -18 -5 25 -24 -6 -1 -10 -2 -16
right_child=1 3 5 9 8 7 -8 -9 26 17 11 -13 -14 14 28 -17 20 -19 19 -21 -22 -23 23 -25 -26 -27 -28 -29 -30
leaf_value=-0.038476672951046294 -0.014181885741140862 0.010245818763226848 -0.0098920428485976264 -0.028880046149751055 0.031145642126726294 0.011176857994091157 0.022723660464894505 -0.01938782712707025 -0.049530373640521347 0.029854298749286565 -0.036852809860937655 0.040781551654876153 0.02989515746825365 -0.0085073946218337925 -0.047748988288702846 0.040306667497644548 0.052535177139035175 -0.035617801718451074 -0.014158247545340423 -0.0018210848828308674 -0.016311260838417968 0.018729889783704354 0.041231822923074708 -0.035222056885917917 0.082343304107970638 -0.020257004608568011 -0.0071940459364709698 -0.046570027163971711 -0.049421821289892386
leaf_weight=35.737689644098282 4.4420807659625998 76.271782726049423 23.447212100028992 23.823388218879703 4.3000742793083191 37.840204864740372 92.36657577753067 33.80180561542511 3.9400570988655073 13.695839345455171 11.292243570089342 5.8985433876514426 91.136007249355316 55.78621518611908 4.096411168575286 8.2917934656143171 3.3796722590923336 3.854745775461196 114.07571566104889 292.29441294074059 8.7415525615215284 3.6477164924144736 3.29235816001892 3.5783574283123016 4.1054326891899127 19.709782391786575 4.6485540866851807 8.8293915390968305 3.6070514023303986
leaf_count=112 14 224 70 72 13 112 271 101 12 41 34 17 261 173 13 25 10 12 349 887 26 11 10 11 12 62 14 29 11
internal_value=-5.26286e-06 0.00238461 -0.00162582 0.0129879 -0.0122569 0.00871969 0.0161204 -0.00324403 0.00956042 -0.00773221 0.0180413 -0.0102147 0.0209428 -0.0169938 -0.00716407 -0.00219078 0.024697 0.0154742 -0.00624721 -0.00528436 0.00288469 -0.0225582 -0.0283162 0.00141365 0.0561517 -0.0320002 -0.026616 -0.0357294 -0.0485323
internal_weight=999.933 836.718 607.097 229.62 163.215 187.456 115.814 71.642 29.1153 45.0217 184.599 17.1908 167.408 134.1 71.7815 64.078 20.5267 17.5506 419.642 406.37 12.1212 27.4711 62.3182 6.87072 8.40551 55.4475 8.58861 13.2715 7.70346
internal_count=3009 2505 1833 672 504 554 341 213 87 136 536 51 485 417 222 198 61 53 1279 1236 36 83 195 21 25 174 26 43 24
is_linear=0
shrinkage=0.05


Tree=20
num_leaves=27
num_cat=0
split_feature=6 16 9 29 19 6 36 6 7 14 15 3 23 29 22 29 24 9 11 18 0 16 22 32 10 11
split_gain=12.9758 8.37582 9.24201 9.35045 8.58467 7.47085 5.63561 5.52852 4.6514 7.54515 6.48032 6.17152 4.71487 4.29188 4.23125 4.12847 6.96779 5.16512 4.76826 4.12805 3.74612 3.53808 3.19573 3.09695 3.02771 2.62434
threshold=0.88278087973594677 -0.85458576679229725 -1.8010043501853941 0.67913588881492626 -0.6952494978904723 0.60265696048736583 0.92775744199752819 0.37798509001731878 0.21180908381938937 1.1411474943161013 -0.050924051553010934 0.97434729337692272 0.059037381783127792 -0.41216729581356043 -0.66781532764434803 -0.017396471463143822 -0.35113687813282007 0.38325321674346929 -1.0340750217437742 -0.30004629492759699 0.99170607328414928 -0.75827842950820912 0.47851727902889257 -0.80069750547409047 0.90442079305648815 0.84963148832321178
decision_type=2 2 2 2 2 2 2 2 2 2 2 2 2 2 2 2 2 2 2 2 2 2 2 2 2 2
left_child=1 7 5 4 -4 13 -5 14 15 10 11 -10 24 -3 -1 18 22 -18 -2 -20 -16 -14 -17 -9 -11 -12
right_child=8 2 3 6 -6 -7 -8 23 9 12 25 -13 21 -15 20 16 17 -19 19 -21 -22 -23 -24 -25 -26 -27
leaf_value=0.05085104942677026 0.04469725904850997 0.0017870530824328837 0.0070241578003397646 0.0039380429877706189 -0.010900884764045412 -0.049616921322518041 0.069596021118825888 0.077036048862927128 -0.0097437983133693631 0.058541765644693461 0.042238853207454047 0.047447439568039956 0.042709881228280608 0.028949542061577588 -0.011383426660315294 0.052166340157888708 0.011702754501483975 -0.041094128337766628 -0.033029361076366552 1.0181281409370149e-05 0.044337628372334931 -0.0098988137994742553 4.8406250428518672e-05 0.020175125114716974 0.0084517122832960031 0.082086023673071259
leaf_weight=4.8365799784660366 4.1262757778167716 23.477344542741776 77.534065663814545 155.86569106578827 482.24117994308472 4.2911081314086905 3.3381755053997031 5.688184529542923 12.323331564664842 5.7217856049537641 22.549257278442386 7.6424141824245444 3.5780937671661368 38.21423664689064 16.522531390190128 12.851377367973329 18.284915357828144 6.2041726410388938 14.62296003103256 26.745535135269165 3.6900074779987326 29.919792383909225 3.8142354786396018 4.1358244717121107 6.3815143406391144 5.0591131150722495
leaf_count=14 12 69 232 473 1473 13 10 16 37 16 63 21 10 111 49 37 54 19 44 80 11 90 11 12 18 14
internal_value=-5.18877e-07 -0.00266844 -0.00373367 -0.00537723 -0.0084181 0.0141754 0.00531475 0.0213088 0.0121627 0.0199175 0.0338477 0.0121477 0.00538468 0.0186126 0.00884136 0.00382393 0.0152989 -0.00167304 -0.00655639 -0.0116687 -0.00121097 -0.00427939 0.0402382 0.0530981 0.0321316 0.0495407
internal_weight=999.66 819.835 784.962 718.979 559.775 65.9827 159.204 34.8731 179.825 93.1753 47.5741 19.9657 45.6012 61.6916 25.0491 86.6495 41.1547 24.4891 45.4948 41.3685 20.2125 33.4979 16.6656 9.82401 12.1033 27.6084
internal_count=3009 2483 2381 2188 1705 193 483 102 526 269 135 58 134 180 74 257 121 73 136 124 60 100 48 28 34 77
is_linear=0
shrinkage=0.05


Tree=21
num_leaves=26
num_cat=0
split_feature=4 20 1 1 5 5 22 4 19 29 8 38 38 33 5 35 37 4 35 17 29 38 19 36 12
split_gain=7.93107 14.1997 8.89532 8.94275 8.23351 8.89592 7.73139 6.87037 11.5661 5.73114 5.25669 4.54572 8.45445 4.51453 5.25328 4.33733 3.77694 3.26656 5.48794 6.1371 4.67536 2.83565 8.60708 3.05426 1.47029
threshold=0.060897655785083778 1.0000000180025095e-35 1.0000000180025095e-35 0.96200117468833934 0.21038476377725604 0.035920847207307822 -0.59242853522300709 -0.54870370030403126 0.16199080646038058 -0.29327218234539026 -0.46509276330471033 0.18978337198495868 0.45520138740539556 -0.65565493702888478 -0.2493673041462898 -0.23845465481281278 0.1477305814623833 0.4634827077388764 -0.12388719990849494 0.92835378646850597 0.03038169909268618 -0.34921818971633906 0.1430783346295357 -0.093892320990562425 0.17612148076295855
decision_type=2 2 2 2 2 2 2 2 2 2 2 2 2 2 2 2 2 2 2 2 2 2 2 2 2
left_child=1 2 7 6 5 13 -4 8 -1 -9 -5 24 -13 16 -15 -14 -2 21 19 -19 -20 22 -6 -23 -3
right_child=4 11 3 10 17 -7 -8 9 -10 -11 -12 12 15 14 -16 -17 -18 18 20 -21 -22 23 -24 -25 -26
leaf_value=-0.0029767576643842109 -0.028499418398568174 0.083331296279329267 -0.00013122496855802368 0.019523430193998846 -0.030262424856385445 0.068616797180683406 0.079159590851703973 -0.022243765320852368 0.027241170118313771 -0.0028645745274655191 0.0011558525374496963 -0.038867564292917198 0.077378729148688347 -0.0023633467508190668 0.014822664424708224 0.0089196898232986755 0.007516435753963018 -0.036185694076064943 -0.015139309965497073 0.021090071585905451 0.0093118093837353689 -0.035833986785826326 0.052931494581099331 -0.013827959574630991 0.047273669711465849
leaf_weight=123.87301579117775 23.677133589982986 5.3875376880168933 4.794967144727706 63.066691994667053 8.5266623198986036 4.7439630925655356 8.567426532506941 58.353802770376205 42.541650414466858 110.19828790426254 101.88219779729843 4.0594272911548606 5.2957700192928305 174.10972449183464 59.715797811746597 4.1087211072444907 10.510802358388899 24.888225495815281 32.851249724626541 5.7591879665851584 48.287191152572632 32.74335914850235 4.8930024206638327 30.412561476230621 5.9488641023635864
leaf_count=373 72 15 14 187 27 13 24 177 125 332 302 12 15 521 178 12 32 78 102 18 150 103 15 95 17
internal_value=5.5445e-06 0.00412931 0.00234389 0.0113655 -0.00480647 0.000745719 0.0507068 -0.00245856 0.00474805 -0.00957377 0.00817853 0.0410811 0.0214387 -0.000455631 0.00202572 0.0474697 -0.0174266 -0.0128463 -0.00739664 -0.0254226 -0.000587935 -0.0208018 7.12725e-05 -0.025237 0.0644098
internal_weight=999.197 538.078 513.278 178.311 461.119 272.757 13.3624 334.967 166.415 168.552 164.949 24.8003 13.4639 268.013 233.826 9.40449 34.1879 188.361 111.786 30.6474 81.1384 76.5756 13.4197 63.1559 11.3364
internal_count=3009 1605 1534 527 1404 816 38 1007 498 509 489 71 39 803 699 27 104 588 348 96 252 240 42 198 32
is_linear=0
shrinkage=0.05


Tree=22
num_leaves=29
num_cat=0
split_feature=8 5 24 4 17 11 4 22 24 28 4 34 18 14 26 27 10 13 7 9 36 25 3 18 9 26 39 19
split_gain=10.748 10.3146 9.02172 8.58702 7.63466 8.10752 5.86026 5.79877 6.29688 7.07769 7.8012 5.42498 8.71541 6.04364 5.30331 5.11957 5.02007 4.67578 4.03225 3.11029 2.99801 3.78243 4.36996 2.87026 2.74683 2.42735 2.00652 1.48858
threshold=-0.55933779478073109 0.49881316721439367 0.3217166960239411 0.66458415985107433 1.6510393023490908 0.70567667484283458 0.88485521078109752 -0.4989731758832931 -0.0061995612923055879 0.80255934596061718 0.13879139721393588 -1.0000000180025095e-35 0.59481266140937816 -0.082242924720048891 -0.81883138418197621 -0.49026414752006525 0.90442079305648815 0.26180906593799597 -0.89925202727317799 -1.9741028547286985 1.8331131339073183 0.96171417832374584 0.46452715992927557 0.47411888837814337 -0.051965413615107529 -0.74096781015396107 0.15257031470537188 -1.8360128998756406
decision_type=2 2 2 2 2 2 2 2 2 2 2 2 2 2 2 2 2 2 2 2 2 2 2 2 2 2 2 2
left_child=7 2 14 11 5 -4 23 20 15 10 -10 12 -3 -13 17 -9 -8 -2 -16 -6 21 24 -23 -5 -1 -22 -17 -11
right_child=1 3 4 6 19 -7 16 8 9 27 -12 13 -14 -15 18 26 -18 -19 -20 -21 25 22 -24 -25 -26 -27 -28 -29
leaf_value=-0.017065693639963627 0.0022822622939383036 -0.035952921284684601 0.019380802897791139 0.019369439670282148 0.020761866646815067 -0.0037431522118327068 0.035920302125241034 0.021683088753846044 0.0064655360036687693 -0.050243435489753602 0.05440179039524861 0.0083281332018763973 0.038976929666405362 0.028225389927826999 0.021151046028339469 -0.015555648800006195 -0.018990241600929558 0.057447796265451191 -0.0075879897372372719 -0.030807055855117622 -0.014839719752199682 0.022886157755657277 -0.030843002390478349 -0.028425882295169031 -0.035102005092906306 0.047565668914871587 -0.043902963359765859 -0.012561749959482421
leaf_weight=68.355626165866852 10.57981511950493 11.118609219789507 111.3484648168087 3.621886312961581 3.574192643165591 57.469657361507416 10.877875983715059 6.2837402820587185 38.816918104887009 4.3276359438896179 10.862455993890761 65.762845307588577 5.9615589976310721 90.936611354351044 12.647428184747694 13.375176280736925 6.7422141432762137 6.0306008756160727 349.02809330821037 16.071083664894104 3.0882190465927124 10.396098285913469 5.9505198597908011 23.666429758071899 30.5411017537117 3.1451840400695792 11.705982983112333 6.6456085443496686
leaf_count=214 32 34 326 11 11 171 32 19 117 13 32 192 17 258 38 41 21 18 1067 49 10 32 19 72 96 10 37 20
internal_value=-6.35065e-06 0.00269763 -0.000861608 0.0119217 0.00807589 0.0115089 -0.0075684 -0.00995419 -0.000486239 0.00891954 0.0169469 0.0169584 -0.00979986 0.019875 -0.0053143 -0.0186749 0.0149091 0.0223107 -0.00658301 -0.0214248 -0.0171261 -0.0189529 0.00332759 -0.0220822 -0.0226356 0.0166481 -0.028786 -0.0274227
internal_weight=998.932 785.437 566.749 218.688 188.463 168.818 44.9084 213.494 92.0175 60.6526 49.6794 173.78 17.0802 156.699 378.286 31.3649 17.6201 16.6104 361.676 19.6453 121.477 115.243 16.3466 27.2883 98.8967 6.2334 25.0812 10.9732
internal_count=3009 2349 1712 637 557 497 136 660 279 182 149 501 51 450 1155 97 53 50 1105 60 381 361 51 83 310 20 78 33
is_linear=0
shrinkage=0.05


Tree=23
num_leaves=23
num_cat=0
split_feature=7 12 9 32 22 8 16 13 35 7 23 32 31 31 35 14 13 31 35 18 16 33
split_gain=10.4167 9.63835 11.9799 8.69116 7.028 6.36497 6.11266 6.05653 5.48516 5.16194 5.08411 5.00319 6.15219 4.89229 4.84415 4.30812 4.20392 4.1286 2.93305 2.38168 6.24946 1.9115
threshold=0.68474370241165172 -0.73980763554573048 -1.7351227998733518 -0.93228930234909047 0.59481266140937816 -1.7750232219696043 -0.85458576679229725 0.3794418871402741 -1.9204231500625608 -0.33865527808666224 -0.3767740130424499 2.6743015050888066 -0.63725391030311573 0.17153563350439074 -0.095263276249170289 1.4423485398292544 -0.91631051898002613 -0.37688788771629328 0.390374705195427 0.14272098243236545 -0.34038449823856348 -0.31526371836662287
decision_type=2 2 2 2 2 2 2 2 2 2 2 2 2 2 2 2 2 2 2 2 2 2
left_child=1 4 9 7 5 17 18 -4 -5 10 -3 12 16 -11 -7 -14 -8 -1 21 -6 -21 -2
right_child=6 2 3 8 19 14 11 -9 -10 13 -12 -13 15 -15 -16 -17 -18 -19 -20 20 -22 -23
leaf_value=0.073706991551441642 0.082313755375489156 0.062067245346610712 0.013067121908618418 0.018574717820286156 0.0655375927860469 -0.0095367882245689095 0.074968905837064254 0.088592751796414682 -0.0086711791935121449 0.016759283367422703 0.0066162373625848828 -0.035387053070650869 0.0057620692390811662 -0.026607668936019891 0.01203566339112175 -0.025945554134971995 0.018631625740087924 0.016435081920907424 0.0092345473694853738 0.071720276191720875 -0.0052504576848197947 0.037615740577437606
leaf_weight=5.0159729421138755 4.3298279643058768 10.436887472867967 10.858646035194395 19.074178963899612 5.9096927344799068 52.095099478960037 3.4989798069000235 3.5132949650287619 585.66110029816628 29.127434134483337 6.8445546329021445 6.411390393972396 92.247842162847519 8.372685104608534 51.997256308794022 12.120250195264815 61.745190024375916 8.4440263509750348 4.6311135292053214 4.4525356888771066 6.4679110050201389 5.3439495861530295
leaf_count=14 12 30 32 58 17 155 10 10 1797 85 20 19 273 25 153 36 179 24 13 13 19 15
internal_value=8.04902e-07 -0.00247727 -0.00491547 -0.00689853 0.00974961 0.00542305 0.0105245 0.0315298 -0.00781181 0.0174959 0.0401051 0.00797006 0.00960897 0.00707671 0.0012393 0.00207987 0.0216529 0.0377779 0.0419568 0.039969 0.0261324 0.0576219
internal_weight=998.6 808.271 673.889 619.107 134.382 117.552 190.329 14.3719 604.735 54.7816 17.2814 176.024 169.612 37.5001 104.092 104.368 65.2442 13.46 14.3049 16.8301 10.9204 9.67378
internal_count=3009 2452 2057 1897 395 346 557 42 1855 160 50 517 498 110 308 309 189 38 40 49 32 27
is_linear=0
shrinkage=0.05


Tree=24
num_leaves=30
num_cat=0
split_feature=13 9 15 35 35 31 13 15 7 26 26 33 37 35 26 12 35 39 33 33 4 14 36 1 15 8 22 31 35
split_gain=7.34324 8.57395 9.9523 8.01853 7.67707 7.50849 8.39882 7.94883 7.27354 5.89221 6.09405 7.7738 6.82573 5.86427 5.41403 5.87863 4.80177 8.05841 7.71074 3.98064 3.8693 3.83318 4.44428 3.58388 3.1486 2.94204 2.69875 2.39748 1.74173
threshold=0.21213039010763171 -0.22277258336544034 0.13385797291994098 0.7731662690639497 -0.22164563089609143 -0.56972032785415638 0.41607397794723516 -2.3180043697357173 -0.7837945520877837 -0.41950507462024683 -0.012898305896669625 -0.39804153144359583 8.5651831626892108 -0.65378776192665089 1.3585098385810854 -0.89047423005104054 -0.72210177779197682 2.0219445228576665 0.11252098903059961 0.22743900865316394 0.28057506680488592 2.4862567186355595 0.82128944993019115 0.20888306200504306 -0.010261079296469687 0.37863042950630194 -0.78057765960693348 -0.87988853454589833 -0.2522465288639068
decision_type=2 2 2 2 2 2 2 2 2 2 2 2 2 2 2 2 2 2 2 2 2 2 2 2 2 2 2 2 2
left_child=1 2 16 9 8 21 23 -8 19 24 11 -11 -12 -10 15 -6 17 -1 -18 -3 26 27 -23 -7 28 -16 -4 -5 -2
right_child=3 4 20 5 14 6 7 -9 13 10 12 -13 -14 -15 25 -17 18 -19 -20 -21 -22 22 -24 -25 -26 -27 -28 -29 -30
leaf_value=-0.026947367738371104 -0.01722611323384228 -0.037586067768451331 0.010671597451193428 -0.011730042858604406 -0.022628119688277774 -0.033102374799729516 0.083056125632750485 0.020674096450026769 0.011289531322591279 -0.023802920888880471 -0.013304171158142121 0.016601103602398925 0.048612935366605048 0.031947495301774813 0.011470449842388902 0.0062547732882394444 -0.00024529885496992273 0.032500108623782269 0.030739972286436407 0.0084892667091927831 0.022583572354400696 0.03321854047616634 -0.034592291414508945 0.023317315750804243 0.0059379106378922566 -0.04332348026310074 -0.032018494056706356 -0.048169484654380514 -0.040095642860314584
leaf_weight=28.403188318014145 12.605738788843153 8.7715872526168841 4.0581846833229056 27.230370253324505 19.212513267993927 9.3825672864913923 5.8959511816501609 38.138097077608109 80.331347644329071 15.875806242227553 166.37124875187874 47.595393598079681 4.573460340499877 60.023475557565689 3.284529209136962 212.15527060627937 103.83399313688278 7.1320603489875785 24.891471415758133 10.068307012319563 4.0691442787647238 8.9878718256950361 3.3046687841415396 4.020956188440322 6.2850081324577323 9.6389797329902631 42.192891269922256 5.410844266414645 24.518865704536438
leaf_count=86 39 27 12 85 60 29 17 115 237 49 513 142 14 175 10 631 309 21 73 30 12 27 10 12 19 30 131 17 77
internal_value=6.71394e-06 0.00337011 -0.00470524 -0.00546099 0.00766472 0.00650119 0.0184781 0.0290268 0.0162084 -0.00986873 -0.00673528 0.006495 -0.0116476 0.020124 0.00209717 0.00385637 0.00125468 -0.015016 0.00574628 -0.0129628 -0.0241603 -0.00880859 0.0149886 -0.0161769 -0.0267896 -0.0293975 -0.0282728 -0.0177705 -0.0323302
internal_weight=998.264 618.067 214.581 380.197 403.486 102.371 57.4376 44.034 159.195 277.826 234.416 63.4712 170.945 140.355 244.291 231.368 164.261 35.5352 128.725 18.8399 50.3202 44.9338 12.2925 13.4035 43.4096 12.9235 46.2511 32.6412 37.1246
internal_count=3009 1844 644 1165 1200 312 173 132 469 853 718 191 527 412 731 691 489 107 382 57 155 139 37 41 135 40 143 102 116
is_linear=0
shrinkage=0.05


Tree=25
num_leaves=24
num_cat=0
split_feature=15 5 24 37 37 31 37 34 27 32 5 28 13 30 37 32 19 18 23 16 35 24 16
split_gain=10.5415 9.056 8.40915 7.93689 7.31895 7.60181 5.92807 5.7659 4.86216 4.44406 4.47241 3.82429 5.43199 3.81091 4.21061 4.00511 3.01967 4.82447 2.22821 1.28758 0.921317 0.304582 0.000726861
threshold=-2.4397987127304073 0.49881316721439367 0.38527050614357 6.7597854137420663 4.0082788467407235 -0.23230474442243573 -2.0299731492996211 -1.0000000180025095e-35 0.68153423070907604 -0.93228930234909047 0.26380020380020147 -0.049125099554657929 0.86499205231666576 1.9202135205268862 -3.8470389842987056 0.21931765228509906 -1.5305016040802 -0.14911262691020963 -3.1189224720001216 -0.96840080618858326 0.43443565070629125 -0.58142897486686695 -0.21219845116138455
decision_type=2 2 2 2 2 2 2 2 2 2 2 2 2 2 2 2 2 2 2 2 2 2 2
left_child=11 2 9 4 5 -3 8 -8 -4 19 -11 13 16 14 15 -1 -13 -18 -16 -2 21 -15 -14
right_child=1 3 6 -5 -6 -7 7 -9 -10 10 -12 12 22 20 18 -17 17 -19 -20 -21 -22 -23 -24
leaf_value=-0.013737457081855538 -0.012853825827267488 -0.0011290261643398837 -0.034989969301952646 0.078098031751006686 -0.050911242401055212 0.017058535557173821 -0.013070477577644502 0.012750081248419858 0.017123191911639062 -0.0039225006766720047 -0.048305376845791975 0.048608177593263822 -0.045629103737875605 -0.029165704701504831 -0.0068592454606391092 0.056199387941706661 -0.047437772232093028 0.0077751706772646208 -0.035301498659245083 -0.046043264156177793 -0.014426376796717773 -0.046553670205268079 -0.046704496536696845
leaf_weight=4.5513436496257764 4.5019468665122977 94.963166147470474 14.283841401338579 4.1807944178581229 5.0562199652194968 145.44801470637321 24.808827191591263 168.26241618394852 6.5183584094047538 416.88466322422028 5.7544541954994193 3.4556808173656455 2.948042094707489 2.9760803282260957 12.222029894590376 3.7205532193183899 4.6755297482013729 25.726187139749527 15.772300332784654 8.3279576599597913 3.0769905149936667 16.38153487443924 3.3646225929260245
leaf_count=15 15 283 44 12 15 420 76 492 19 1275 18 10 10 10 39 11 15 77 50 28 10 54 11
internal_value=-1.19299e-05 0.00169236 -0.00141927 0.0097858 0.00862231 0.00987439 0.00669985 0.00943225 -0.0186603 -0.00540685 -0.0045268 -0.0155083 -0.00362101 -0.0236429 -0.0136229 0.0177189 0.0043182 -0.000716118 -0.0228839 -0.0343973 -0.0398407 -0.0438804 -0.0462023
internal_weight=997.862 898.991 649.342 249.648 245.467 240.411 213.873 193.071 20.8022 435.469 422.639 98.8709 40.1701 58.7008 36.2662 8.2719 33.8574 30.4017 27.9943 12.8299 22.4346 19.3576 6.31266
internal_count=3009 2697 1967 730 718 703 631 568 63 1336 1293 312 123 189 115 26 102 92 89 43 74 64 21
is_linear=0
shrinkage=0.05


Tree=26
num_leaves=27
num_cat=0
split_feature=6 37 6 7 15 24 9 35 13 24 0 31 33 31 11 35 9 6 26 4 26 37 33 35 32 10
split_gain=11.4078 7.82136 9.58381 8.90559 9.79145 8.42585 6.81655 6.59729 5.40631 5.40263 4.85386 4.52881 5.20134 4.16449 6.09077 4.54258 4.94809 4.4072 4.32223 3.68847 3.59262 3.4758 3.08575 2.8977 2.75293 2.06615
threshold=0.88278087973594677 -0.10878964141011237 0.21031591296195987 0.94585657119750988 -0.73821833729743946 0.012398879509419205 -1.3148316144943235 -1.6783140897750852 0.080355599522590651 -0.90425819158554066 0.99170607328414928 -1.378958463668823 -0.96877664327621449 0.14134211093187335 -1.2538011670112608 -0.44034045934677118 1.9454244375228884 0.95454064011573803 1.183292090892792 -0.54870370030403126 1.0739894509315493 0.028047038242220882 0.91533759236335765 -0.46166361868381495 -0.1017651967704296 0.90442079305648815
decision_type=2 2 2 2 2 2 2 2 2 2 2 2 2 2 2 2 2 2 2 2 2 2 2 2 2 2
left_child=1 2 6 4 7 20 8 -3 -1 -8 -6 25 -13 14 21 22 -17 -15 24 -7 -4 -2 -16 -23 -19 -5
right_child=13 3 5 11 10 19 9 -9 -10 -11 -12 12 -14 17 15 16 -18 18 -20 -21 -22 23 -24 -25 -26 -27
leaf_value=0.0035149919144841358 0.080815980600635162 0.069513731078575267 0.026396966082000307 0.026369764558128329 -0.014830160054481782 -0.050120200791867034 0.043885719293971892 0.0042865011440600658 0.038259950950692616 -0.0050886544150294212 0.00093178480969183057 0.061431656388848427 0.00054052474838091552 0.039132017474950646 -0.014444319904554538 0.021574125640922249 -0.010947343905803451 -0.00069647350913966378 0.028940038618524733 0.0055815518033124102 0.062041793278055701 -0.0072245261607427743 0.027282347456530964 0.055927191455257458 -0.031443564154575152 0.075308159583868217
leaf_weight=28.975592494010925 5.0653808414936048 4.1164626479148856 30.150777339935303 5.6140146851539594 301.25022733211517 3.9885137379169473 5.7734779119491568 66.520813703536987 18.245865225791931 228.64512267708778 58.295439541339874 3.8691075146198264 37.482555866241455 5.4688874185085288 21.60102611780167 86.374684065580368 13.527788519859312 13.634146124124527 6.1689922809600821 11.6612174808979 9.2339363992214185 3.3583626449108124 5.5740289688110343 3.9563162922859192 15.620415508747101 3.50222247838974
leaf_count=85 14 12 89 16 931 12 17 199 53 696 180 11 110 16 64 250 40 40 18 35 27 10 16 11 47 10
internal_value=5.21418e-06 -0.00250631 0.00333786 -0.0065999 -0.00893103 0.0224216 -0.000391237 0.00808769 0.0169401 -0.00388247 -0.0122746 0.0132705 0.00623786 0.0113872 0.0155014 0.01224 0.0171704 -0.00264396 -0.00909357 -0.00861468 0.0347541 0.0489793 -0.00588553 0.0269326 -0.0171138 0.0451706
internal_weight=997.675 817.325 336.675 480.651 430.183 55.0344 281.64 70.6373 47.2215 234.419 359.546 50.4679 41.3517 180.35 139.458 127.078 99.9025 40.8924 35.4236 15.6497 39.3847 12.3801 27.1751 7.31468 29.2546 9.11624
internal_count=3009 2483 1014 1469 1322 163 851 211 138 713 1111 147 121 526 405 370 290 121 105 47 116 35 80 21 87 26
is_linear=0
shrinkage=0.05


Tree=27
num_leaves=26
num_cat=0
split_feature=5 5 19 28 29 31 5 14 11 39 13 38 37 30 36 14 35 31 15 29 35 36 24 9 12
split_gain=6.97083 11.2849 7.32365 6.44907 7.83322 8.60597 9.42203 5.98788 5.70592 5.89695 5.29504 5.14771 5.07972 8.55773 5.06121 4.80703 4.72777 5.16998 3.72854 3.60718 2.52703 4.64585 3.24234 2.41978 0.19709
threshold=0.23738234490156176 1.0000000180025095e-35 -1.5305016040802 -0.36668851971626276 0.12247660011053087 -0.11612677201628684 0.40703612565994268 0.73625397682189953 -1.2815390229225156 0.32941241562366491 -1.2026482224464414 0.48599787056446081 2.4727424383163457 1.0781064033508303 1.0080292224884035 1.0901693105697634 0.74343442916870128 -2.2566913366317745 3.78071141242981 -0.24027562141418454 -0.68891993165016163 0.77608767151832592 1.2511876821517947 0.0066628975328058013 0.28983594477176672
decision_type=2 2 2 2 2 2 2 2 2 2 2 2 2 2 2 2 2 2 2 2 2 2 2 2 2
left_child=1 2 20 4 5 6 -2 11 -6 -10 -7 -4 16 19 -15 -9 17 -5 -18 -14 21 -1 -22 -3 -25
right_child=3 23 7 12 8 10 -8 15 9 -11 -12 -13 13 14 -16 -17 18 -19 -20 -21 22 -23 -24 24 -26
leaf_value=-0.034092528101904405 -0.021809677484544092 0.025982588700504711 0.0043603782429492621 0.023057379445328856 -0.02888668240218302 0.034454258773097574 0.030505490181190031 -0.019796580186854706 0.015145061635438465 0.060285600090707429 -0.021147644933376758 0.021405696130196276 0.019134846543460243 0.061790787428347684 -0.00058024885498059718 0.0018621187482418264 0.0042648033767702228 -0.017486653493706924 -0.030921053792565246 -0.032862980338931369 -0.040548560349738909 0.044807522892766197 0.0071850253616131069 0.059199044405727756 0.075520235128553631
leaf_weight=3.9650257229805019 12.493909835815428 6.769620329141615 387.01151356101036 8.2302209734916669 4.4212934970855704 4.6882747411727896 27.661336719989777 43.098661810159683 19.581625670194629 11.474433094263075 49.390621840953827 50.018616259098053 4.9927851855754861 8.8067075014114362 5.1573476493358603 63.163915514945984 59.030498027801514 176.10251319408417 8.6297919452190381 10.046956717967987 17.172558128833774 3.5239135921001434 4.4871205389499655 3.7038682997226715 3.6949276626110077
leaf_count=13 38 19 1142 25 13 14 81 130 58 33 151 149 15 26 16 192 182 552 27 32 57 10 14 10 10
internal_value=6.207e-06 0.00350395 0.00241291 -0.00498957 0.00423217 -0.00330697 0.0142281 0.00372288 0.0242575 0.0318234 -0.0163273 0.00631124 -0.00924644 0.0105691 0.0387553 -0.00692236 -0.0115272 -0.0156764 -0.000223008 -0.0156011 -0.0220032 0.00303382 -0.0306598 0.0475847 0.0673498
internal_weight=997.318 586.61 572.441 410.708 129.711 94.2341 40.1552 543.293 35.4774 31.0561 54.0789 437.03 280.997 29.0038 13.9641 106.263 251.993 184.333 67.6603 15.0397 29.1486 7.48894 21.6597 14.1684 7.3988
internal_count=3009 1746 1707 1263 388 284 119 1613 104 91 165 1291 875 89 42 322 786 577 209 47 94 23 71 39 20
is_linear=0
shrinkage=0.05


Tree=28
num_leaves=26
num_cat=0
split_feature=15 7 5 32 30 5 36 31 6 14 28 7 11 28 35 18 37 28 29 22 32 9 15 32 18
split_gain=9.74479 9.15889 8.51735 8.02217 6.83134 6.63797 6.12837 6.20269 5.46937 5.19004 3.67698 4.27892 3.88918 5.72292 3.59118 3.4076 3.36769 3.29318 3.97917 2.40896 1.77231 1.49472 5.06368 1.49165 1.40524
threshold=-2.4397987127304073 0.98333248496055614 0.49881316721439367 -0.58426302671432484 -0.049038346856832497 0.26380020380020147 1.6518633365631106 -0.17639999836683271 -0.16668753325939176 2.8324817419052128 -0.049125099554657929 -0.79464340209960926 0.26471924781799322 0.31536233425140386 -0.3408131450414657 -0.14911262691020963 2.3794239759445195 -1.1030146479606626 -1.3680635094642637 0.31439568102359777 -0.61393195390701283 0.0016749211936257782 0.031943988054990775 1.9312459230422976 0.48747117817401892
decision_type=2 2 2 2 2 2 2 2 2 2 2 2 2 2 2 2 2 2 2 2 2 2 2 2 2
left_child=10 2 3 8 21 -5 7 -4 -2 14 11 -1 13 15 -6 -12 -15 18 -13 -14 -19 22 -3 -23 -21
right_child=1 4 6 5 9 -7 -8 -9 -10 -11 12 17 19 16 -16 -17 -18 20 -20 24 -22 23 -24 -25 -26
leaf_value=0.016572567387429352 0.0072589218635049288 -0.026818810509528813 0.00011141035111137482 0.0035977202059148021 0.020556640012652422 -0.048017280776813699 0.073876998334909169 0.01728725880100114 -0.019918074521468532 0.056414602510877335 -0.038662959900224447 -0.046728981535632007 0.009920009226021256 0.0099364312730974708 -0.011050303999483873 0.0087430518999361256 0.078926074384191497 0.0023260227659713372 0.016743131616356488 -0.047620675037516769 -0.037301076006308123 -0.039220552887176796 0.040857610472828355 -0.0093052313695084887 -0.010454495835561586
leaf_weight=6.1037376224994651 24.949121803045273 17.022856116294864 86.003009289503098 463.99900439381599 11.306979119777678 6.3138314187526694 3.8949063122272483 135.18741843104362 71.762418150901794 3.7252040505409232 5.5651176571846035 3.6499612033367157 4.0765710175037375 3.3065816164016715 43.79908686876297 11.889016628265383 3.8037992715835571 3.0507871806621543 7.6333172023296338 7.4390506446361524 37.559535920619965 22.543053388595585 3.299723505973815 5.1118652522563925 3.8644655048847198
leaf_count=19 77 55 254 1391 34 20 11 387 224 11 18 12 12 10 136 36 11 10 24 24 124 71 10 16 12
internal_value=-1.04939e-05 0.00162129 0.00347458 0.000207928 -0.0121229 0.0029048 0.0117038 0.010609 -0.0129071 -0.000703772 -0.0149872 -0.0230272 -0.00331352 0.0090316 -0.00456501 -0.00637199 0.0468434 -0.0276849 -0.00378909 -0.0230307 -0.0343242 -0.0261254 -0.0158304 -0.0336909 -0.0349142
internal_weight=996.86 898.918 792.11 567.024 106.809 470.313 225.085 221.19 96.7115 58.8313 97.9419 57.9973 39.9446 24.5645 55.1061 17.4541 7.11038 51.8936 11.2833 15.3801 40.6103 47.9775 20.3226 27.6549 11.3035
internal_count=3009 2697 2364 1712 333 1411 652 641 301 181 312 189 123 75 170 54 21 170 36 48 134 152 65 87 36
is_linear=0
shrinkage=0.05


Tree=29
num_leaves=27
num_cat=0
split_feature=6 24 33 19 37 6 36 15 32 6 32 11 14 7 38 9 7 7 35 37 17 33 13 22 35 13
split_gain=10.4742 7.42242 6.41874 8.00955 6.08979 7.48467 6.14259 5.48144 5.24144 5.56783 4.8393 4.79601 4.12772 6.39976 5.91562 5.14952 4.60698 5.42017 4.41082 4.12525 3.78664 3.7128 1.56082 1.37533 1.27144 0.00252413
threshold=0.88278087973594677 -0.79152491688728321 -0.87803989648818959 0.48050512373447424 -0.10878964141011237 0.19593044370412829 -0.11710106581449507 -0.94619372487068165 -0.54185640811920155 0.37798509001731878 -0.46784244477748865 0.20240975916385653 1.2643373012542727 0.21180908381938937 1.1480871438980105 -0.088758699595928178 0.09837947785854341 -0.0083881267346441728 -0.61732676625251759 -0.001371531863696873 0.28122766315937048 0.40720511972904211 0.68035304546356212 -0.21878492832183835 0.097717333585023894 -0.15531555563211438
decision_type=2 2 2 2 2 2 2 2 2 2 2 2 2 2 2 2 2 2 2 2 2 2 2 2 2 2
left_child=1 7 3 10 5 -4 -6 -1 9 -9 -3 -5 13 16 22 18 17 -2 -15 -17 21 -16 25 -10 -18 -14
right_child=12 2 4 11 6 -7 -8 8 23 -11 -12 -13 14 15 20 19 24 -19 -20 -21 -22 -23 -24 -25 -26 -27
leaf_value=0.073489728881176983 0.0063397104502708997 -0.012249795911839258 -0.0031346237109581166 -0.048409757794969956 -0.0021143073771558883 0.019700425329920057 -0.014662761581920132 0.0078629955501448388 -0.049548632005950624 0.052387792081491719 0.019883298338857894 0.014116385739203577 -0.047768271514098112 -0.037638190518912915 0.04450581340571725 -0.011026570754767547 -0.050029367365090574 0.056435270879082289 0.021851265016333034 0.046173871338243855 -0.037600226945495807 0.0049190358193183922 -0.0072172869681769785 -0.0050086422069084745 -0.0084304892641185371 -0.049701020623159793
leaf_weight=3.8958505392074576 62.072118997573853 14.146665960550306 231.07894790172577 8.9646218717098218 170.81846043467522 42.481732040643692 227.28672367334366 27.949688374996185 3.625180721282959 9.3770108222961408 68.2229343354702 4.6616855859756461 3.1533210873603821 4.233112424612048 7.2183538675308219 3.5057807862758628 3.9867861270904532 5.9139552414417258 11.8056783080101 31.238396197557449 4.2505954504013053 33.005602687597275 3.3786941468715668 3.3209034204483023 3.4062118232250214 3.6384317576885206
leaf_count=11 183 42 702 28 528 126 701 83 11 27 200 14 10 13 21 10 12 17 34 86 13 96 10 10 10 11
internal_value=4.28504e-06 -0.00240878 -0.00360343 0.0084903 -0.00533189 0.000411472 -0.00927849 0.0166303 0.0116269 0.0190483 0.0143646 -0.027019 0.0108924 0.0158644 -0.00058663 0.0295844 0.00662123 0.0106974 0.00615023 0.0404022 0.00728037 0.012023 -0.0349884 -0.0282542 -0.0308633 -0.0488037
internal_weight=996.637 815.83 767.662 95.9959 671.666 273.561 398.105 48.1686 44.2728 37.3267 82.3696 13.6263 180.807 126.162 54.645 50.783 75.3791 67.9861 16.0388 34.7442 44.4746 40.224 10.1704 6.94608 7.393 6.79175
internal_count=3009 2483 2341 284 2057 828 1229 142 131 110 242 42 526 365 161 143 222 200 47 96 130 117 31 21 22 21
is_linear=0
shrinkage=0.05


Tree=30
num_leaves=31
num_cat=0
split_feature=27 9 15 7 23 32 37 35 28 33 35 12 8 37 26 26 35 39 25 15 4 8 23 36 1 38 31 28 26 5
split_gain=6.72973 7.77694 10.3318 7.07854 6.98747 7.69308 8.26511 6.52229 6.48027 6.85457 6.43585 5.77219 8.41187 5.71791 5.68647 7.73701 5.41951 7.76152 5.62707 5.40042 4.0009 3.50729 3.40581 2.71012 4.55526 2.18549 1.11352 1.32078 0.62619 0.01121
threshold=0.030258785001933578 -0.22277258336544034 0.13385797291994098 -0.77907344698905934 -0.13168540596961972 -0.20256128162145612 -0.18732985854148862 -0.20946054905652997 0.1927900239825249 0.70856651663780224 0.54281479120254528 -0.90264406800270069 -0.81574225425720204 -0.015594313386827706 -0.46023252606391901 -1.4123809337615965 -0.65378776192665089 0.32941241562366491 0.83683687448501598 -2.786184430122375 -0.062374455854296677 0.21484262496232989 -1.0374440550804136 0.51317107677459728 0.96200117468833934 -0.20588248223066327 -0.1354224234819412 0.31536233425140386 0.18633829802274707 0.24193826317787173
decision_type=2 2 2 2 2 2 2 2 2 2 2 2 2 2 2 2 2 2 2 2 2 2 2 2 2 2 2 2 2 2
left_child=1 2 14 23 5 13 -7 16 9 -6 -10 22 -13 -5 15 -1 17 -3 -18 -16 25 -22 -9 26 28 -4 27 -2 -25 -28
right_child=3 7 20 4 8 6 -8 11 10 -11 -12 12 -14 -15 19 -17 18 -19 -20 -21 21 -23 -24 24 -26 -27 29 -29 -30 -31
leaf_value=0.016860976523820598 -0.01292191259091615 -0.0015282181705825457 -0.020759933562205797 0.08104901579644648 -0.02243443840710288 -0.024683948419802395 0.021101924123134691 0.010514552468501196 -0.0079083589596997232 0.016102871985794659 0.0071265418415112081 0.036677364265677609 0.0017011603349325504 0.015196132154258097 0.034226563716037876 -0.021346278278827971 0.033386214377481079 0.035271415547811748 -0.014894155809989464 0.0040694526931977617 0.04103983935496118 -0.024925204088081271 -0.034446614773669747 -0.017247792252558316 0.034808398645828326 -0.045244755108416836 -0.051189971541897028 -0.048747886737367553 -0.048538978773727648 -0.04765582354731554
leaf_weight=19.133881628513336 6.6568121016025579 55.418160736560822 19.835386961698532 6.4223000705242157 77.848198980093002 16.051723569631577 25.538467913866043 5.82172963023186 165.89347216486931 13.546599537134169 124.66717526316643 19.448615461587906 148.05403760075569 6.7721990942954999 18.31224912405014 43.089729011058807 54.526831537485123 19.324972599744797 6.7861501276493064 78.411373525857925 3.8904464840888959 4.1801037788391113 15.232627004384993 3.1948322355747205 4.0603751838207245 16.860535115003586 6.4537220299243927 4.1931014060974121 3.2004863023757935 3.43961501121521
leaf_count=57 20 165 62 19 239 49 76 18 512 41 380 56 442 20 53 130 158 56 20 234 12 13 49 10 12 53 19 13 10 11
internal_value=7.98344e-06 0.00387543 -0.00378223 -0.00435856 -0.00271493 0.0139843 0.00343088 0.00868106 -0.00511013 -0.0167224 -0.00145752 0.00266067 0.00576222 0.0472494 0.0021936 -0.00959747 0.0170246 0.00798639 0.0280425 0.00977896 -0.0249999 0.00687355 -0.0220144 -0.0273671 -0.00661046 -0.0320099 -0.0378295 -0.0267674 -0.0329072 -0.0499613
internal_weight=996.266 528.327 203.714 467.939 436.74 54.7847 41.5902 324.613 381.955 91.3948 290.561 188.557 167.503 13.1945 158.947 62.2236 136.056 74.7431 61.313 96.7236 44.7665 8.07055 21.0544 31.1989 10.4557 36.6959 20.7433 10.8499 6.39532 9.89334
internal_count=3009 1578 614 1431 1336 164 125 964 1172 280 892 565 498 39 474 187 399 221 178 287 140 25 67 95 32 115 63 33 20 30
is_linear=0
shrinkage=0.05


Tree=31
num_leaves=29
num_cat=0
split_feature=8 5 24 4 17 36 8 14 4 10 5 32 32 32 14 16 37 15 13 14 5 33 33 26 28 4 26 16
split_gain=9.20426 10.2422 9.16886 7.65889 6.23208 6.34304 6.14163 5.46659 5.40211 4.39782 4.21805 4.15132 3.73853 6.52169 5.22853 6.80173 2.91824 6.66775 6.21765 2.89871 4.41312 2.68824 3.67613 2.63095 2.37425 1.77568 1.02615 0.260925
